{"learner":{"attributes":{"best_iteration":"99","best_ntree_limit":"100","scikit_learn":"{\"n_estimators\": 100, \"objective\": \"reg:squarederror\", \"max_depth\": 6, \"max_leaves\": null, \"max_bin\": null, \"grow_policy\": null, \"learning_rate\": null, \"verbosity\": null, \"booster\": null, \"tree_method\": null, \"gamma\": null, \"min_child_weight\": null, \"max_delta_step\": null, \"subsample\": null, \"sampling_method\": null, \"colsample_bytree\": null, \"colsample_bylevel\": null, \"colsample_bynode\": null, \"reg_alpha\": null, \"reg_lambda\": null, \"scale_pos_weight\": null, \"base_score\": null, \"missing\": NaN, \"num_parallel_tree\": null, \"random_state\": null, \"n_jobs\": null, \"monotone_constraints\": null, \"interaction_constraints\": null, \"importance_type\": null, \"gpu_id\": null, \"validate_parameters\": null, \"predictor\": null, \"enable_categorical\": false, \"feature_types\": null, \"max_cat_to_onehot\": null, \"max_cat_threshold\": null, \"eval_metric\": null, \"early_stopping_rounds\": null, \"callbacks\": null, \"_estimator_type\": \"regressor\"}"},"feature_names":["Time","T_amb","T_in"],"feature_types":["int","float","float"],"gradient_booster":{"model":{"gbtree_model_param":{"num_parallel_tree":"1","num_trees":"100","size_leaf_vector":"0"},"tree_info":[0,0,0,0,0,0,0,0,0,0,0,0,0,0,0,0,0,0,0,0,0,0,0,0,0,0,0,0,0,0,0,0,0,0,0,0,0,0,0,0,0,0,0,0,0,0,0,0,0,0,0,0,0,0,0,0,0,0,0,0,0,0,0,0,0,0,0,0,0,0,0,0,0,0,0,0,0,0,0,0,0,0,0,0,0,0,0,0,0,0,0,0,0,0,0,0,0,0,0,0],"trees":[{"base_weights":[2.0420717E1],"categories":[],"categories_nodes":[],"categories_segments":[],"categories_sizes":[],"default_left":[0],"id":0,"left_children":[-1],"loss_changes":[0E0],"parents":[2147483647],"right_children":[-1],"split_conditions":[6.1262155E0],"split_indices":[0],"split_type":[0],"sum_hessian":[7.23E2],"tree_param":{"num_deleted":"0","num_feature":"3","num_nodes":"1","size_leaf_vector":"0"}},{"base_weights":[1.4302965E1,1.1409171E1,1.4402989E1],"categories":[],"categories_nodes":[],"categories_segments":[],"categories_sizes":[],"default_left":[1,0,0],"id":1,"left_children":[1,-1,-1],"loss_changes":[4.5234375E1,0E0,0E0],"parents":[2147483647,0,0],"right_children":[2,-1,-1],"split_conditions":[9.700001E0,3.4227514E0,4.320897E0],"split_indices":[1,0,0],"split_type":[0,0,0],"sum_hessian":[7.23E2,2.8E1,6.95E2],"tree_param":{"num_deleted":"0","num_feature":"3","num_nodes":"3","size_leaf_vector":"0"}},{"base_weights":[1.002277E1,9.009213E0,1.0296613E1,7.619361E0,9.4474E0],"categories":[],"categories_nodes":[],"categories_segments":[],"categories_sizes":[],"default_left":[1,1,0,0,0],"id":2,"left_children":[1,3,-1,-1,-1],"loss_changes":[1.0817969E2,2.6676758E1,0E0,0E0,0E0],"parents":[2147483647,0,0,1,1],"right_children":[2,4,-1,-1,-1],"split_conditions":[6.5E1,1.645E1,3.088984E0,2.2858083E0,2.8342202E0],"split_indices":[0,2,0,0,0],"split_type":[0,0,0,0,0],"sum_hessian":[7.23E2,1.61E2,5.62E2,4.3E1,1.18E2],"tree_param":{"num_deleted":"0","num_feature":"3","num_nodes":"5","size_leaf_vector":"0"}},{"base_weights":[7.0272775E0,6.4921703E0,7.3539925E0,5.3947725E0,6.794629E0,7.5876703E0,6.615097E0,5.852949E0,4.134254E0,4.795844E0,7.6512036E0,1.6530278E0,4.6208353E0],"categories":[],"categories_nodes":[],"categories_segments":[],"categories_sizes":[],"default_left":[1,1,1,1,0,1,0,0,1,0,0,0,0],"id":3,"left_children":[1,3,5,7,-1,9,-1,-1,11,-1,-1,-1,-1],"loss_changes":[7.883203E1,5.7277344E1,2.6123047E1,1.3920044E1,0E0,2.166211E1,0E0,0E0,1.7715302E1,0E0,0E0,0E0,0E0],"parents":[2147483647,0,0,1,1,2,2,3,3,5,5,8,8],"right_children":[2,4,6,8,-1,10,-1,-1,12,-1,-1,-1,-1],"split_conditions":[1.275E2,1.645E1,1.925E1,1.215E1,2.0383887E0,9.6E0,1.9845291E0,1.7558848E0,1.2299999E1,1.4387532E0,2.2953613E0,4.9590835E-1,1.3862506E0],"split_indices":[0,2,2,1,0,1,0,0,1,0,0,0,0],"split_type":[0,0,0,0,0,0,0,0,0,0,0,0,0],"sum_hessian":[7.23E2,2.82E2,4.41E2,6.5E1,2.17E2,3.28E2,1.13E2,4.5E1,2E1,9E0,3.19E2,4E0,1.6E1],"tree_param":{"num_deleted":"0","num_feature":"3","num_nodes":"13","size_leaf_vector":"0"}},{"base_weights":[4.9348335E0,4.2931843E0,5.0964317E0,3.8028212E0,5.0437393E0,5.294623E0,4.5277967E0,4.1188645E0,3.0746517E0,4.9373693E0,5.620161E0,1.3934417E0,3.5569012E0,5.8240867E0,4.915636E0,2.0291271E0,-5.543048E-1,2.2059824E0,4.8399734E-1],"categories":[],"categories_nodes":[],"categories_segments":[],"categories_sizes":[],"default_left":[1,1,1,1,0,1,0,0,1,0,1,1,0,0,0,1,0,0,0],"id":4,"left_children":[1,3,5,7,-1,9,-1,-1,11,-1,13,15,-1,-1,-1,17,-1,-1,-1],"loss_changes":[5.319336E1,3.676245E1,4.060254E1,9.428589E0,0E0,2.0981445E1,0E0,0E0,2.1798828E1,0E0,1.8291016E0,1.2268141E1,0E0,0E0,0E0,8.4516144E-1,0E0,0E0,0E0],"parents":[2147483647,0,0,1,1,2,2,3,3,5,5,8,8,10,10,11,11,15,15],"right_children":[2,4,6,8,-1,10,-1,-1,12,-1,14,16,-1,-1,-1,18,-1,-1,-1],"split_conditions":[1.645E1,2.125E2,1.515E1,1.1950001E1,1.5131218E0,1.575E2,1.3583391E0,1.2356594E0,1.2299999E1,1.4812108E0,1.825E1,1.35E2,1.0670704E0,1.7472261E0,1.4746909E0,9E1,-1.6629145E-1,6.617948E-1,1.4519921E-1],"split_indices":[2,0,1,1,0,0,0,0,1,0,2,0,0,0,0,0,0,0,0],"split_type":[0,0,0,0,0,0,0,0,0,0,0,0,0,0,0,0,0,0,0],"sum_hessian":[7.23E2,1.51E2,5.72E2,9.5E1,5.6E1,4.18E2,1.54E2,6.3E1,3.2E1,2.07E2,2.11E2,8E0,2.4E1,1.58E2,5.3E1,6E0,2E0,5E0,1E0],"tree_param":{"num_deleted":"0","num_feature":"3","num_nodes":"19","size_leaf_vector":"0"}},{"base_weights":[3.4689107E0,3.2581904E0,3.712E0,2.6355624E0,3.4301066E0,3.9143076E0,3.3119698E0,2.8726509E0,2.1160693E0,3.1952856E0,3.602947E0,2.0746164E0,3.9395907E0,1.0465987E0,2.4289513E0,1.535674E0,-4.434433E-1,2.199599E0,8.3018416E-1],"categories":[],"categories_nodes":[],"categories_segments":[],"categories_sizes":[],"default_left":[1,1,1,1,1,1,0,0,1,0,0,0,0,1,0,1,0,0,0],"id":5,"left_children":[1,3,5,7,9,11,-1,-1,13,-1,-1,-1,-1,15,-1,17,-1,-1,-1],"loss_changes":[2.499121E1,3.3348145E1,1.3661621E1,5.0061646E0,9.472656E-1,1.7341309E0,0E0,0E0,8.165649E0,0E0,0E0,0E0,0E0,7.23967E0,0E0,1.452673E0,0E0,0E0,0E0],"parents":[2147483647,0,0,1,1,2,2,3,3,4,4,5,5,8,8,13,13,15,15],"right_children":[2,4,6,8,10,12,-1,-1,14,-1,-1,-1,-1,16,-1,18,-1,-1,-1],"split_conditions":[1.875E2,1.655E1,1.83E1,1.1950001E1,8.75E1,9.549999E0,9.9359095E-1,8.617953E-1,1.2299999E1,9.585857E-1,1.0808841E0,6.2238497E-1,1.1818773E0,1.35E2,7.286854E-1,1.215E1,-1.3303299E-1,6.5987974E-1,2.4905525E-1],"split_indices":[0,2,2,1,0,1,0,0,1,0,0,0,0,0,0,1,0,0,0],"split_type":[0,0,0,0,0,0,0,0,0,0,0,0,0,0,0,0,0,0,0],"sum_hessian":[7.23E2,3.95E2,3.28E2,8.9E1,3.06E2,2.12E2,1.16E2,5.8E1,3.1E1,1.38E2,1.68E2,4E0,2.08E2,8E0,2.3E1,6E0,2E0,2E0,4E0],"tree_param":{"num_deleted":"0","num_feature":"3","num_nodes":"19","size_leaf_vector":"0"}},{"base_weights":[2.4381871E0,2.068057E0,2.5210488E0,1.8618554E0,2.5267045E0,2.6435292E0,2.162629E0,1.9922353E0,1.2472428E0,2.257753E0,2.7438395E0,1.5049922E0,6.7249465E-1,1.132386E0,2.2947757E0,2.4184852E0,2.9000773E0,1.0740366E0,-3.5475412E-1,1.3303618E0,1.7024136E-1,1.6447592E0,6.3094026E-1],"categories":[],"categories_nodes":[],"categories_segments":[],"categories_sizes":[],"default_left":[1,1,1,1,0,1,0,0,1,1,1,0,1,1,0,0,0,1,0,0,0,0,0],"id":6,"left_children":[1,3,5,7,-1,9,-1,-1,11,13,15,-1,17,19,-1,-1,-1,21,-1,-1,-1,-1,-1],"loss_changes":[1.6990723E1,8.346802E0,2.005249E1,5.448395E0,0E0,1.0560791E1,0E0,0E0,1.9507179E0,1.3595276E0,1.0218506E1,0E0,3.6808867E0,7.259245E-1,0E0,0E0,0E0,4.795661E-1,0E0,0E0,0E0,0E0,0E0],"parents":[2147483647,0,0,1,1,2,2,3,3,5,5,8,8,9,9,10,10,12,12,13,13,17,17],"right_children":[2,4,6,8,-1,10,-1,-1,12,14,16,-1,18,20,-1,-1,-1,22,-1,-1,-1,-1,-1],"split_conditions":[1.6349998E1,2.425E2,1.515E1,1.6150002E1,7.580114E-1,1.105E1,6.487887E-1,5.976706E-1,1.185E1,1E1,9.5E1,4.514977E-1,1.35E2,1.07E1,6.8843275E-1,7.255456E-1,8.7002325E-1,1.215E1,-1.0642624E-1,3.9910856E-1,5.1072408E-2,4.9342778E-1,1.8928209E-1],"split_indices":[2,0,1,2,0,1,0,0,1,0,0,0,0,1,0,0,0,1,0,0,0,0,0],"split_type":[0,0,0,0,0,0,0,0,0,0,0,0,0,0,0,0,0,0,0,0,0,0,0],"sum_hessian":[7.23E2,1.37E2,5.86E2,9.8E1,3.9E1,4.32E2,1.54E2,7.9E1,1.9E1,9.4E1,3.38E2,1.2E1,7E0,4E0,9E1,1.15E2,2.23E2,5E0,2E0,3E0,1E0,1E0,4E0],"tree_param":{"num_deleted":"0","num_feature":"3","num_nodes":"23","size_leaf_vector":"0"}},{"base_weights":[1.7146955E0,1.5715436E0,1.8401499E0,1.408457E0,1.697175E0,1.9530019E0,1.5971545E0,1.3633906E0,1.8356382E0,1.7632313E0,1.0816162E0,1.6332569E0,2.1088624E0,1.1003457E0,1.6860368E0,1.3705223E0,1.6821194E-1,9.9781394E-1,1.8308665E0,1.346575E0,1.8242036E0,2.7147102E-1,1.1268888E0,5.660203E-1,1.7022893E0,1.4727591E0,1.2156978E0,1.1883521E0,1.2911129E-1,1.3060951E0,1.8657696E0,1.4152963E0,2.0949416E0,1.7366959E0,1.0766246E0,7.429327E-1,1.280734E0,2.8749275E-1,1.2394661E0,-1.9513449E-2,2.8749275E-1,6.9578046E-1,1.6005692E0],"categories":[],"categories_nodes":[],"categories_segments":[],"categories_sizes":[],"default_left":[1,1,1,1,1,1,1,1,0,1,0,1,0,1,1,1,0,1,1,0,1,0,0,0,1,0,1,1,1,1,0,0,0,0,0,0,0,0,0,0,0,0,0],"id":7,"left_children":[1,3,5,7,9,11,13,15,-1,17,-1,19,-1,21,23,25,-1,27,29,-1,31,-1,-1,-1,33,-1,35,37,39,41,-1,-1,-1,-1,-1,-1,-1,-1,-1,-1,-1,-1,-1],"loss_changes":[1.0110352E1,4.6782227E0,7.3012695E0,5.005493E-1,5.8185425E0,9.263733E0,3.7086487E0,1.0053711E0,0E0,6.973877E0,0E0,2.360794E0,0E0,1.7809868E-1,9.4781494E-1,4.8892212E-1,0E0,2.4949074E0,4.0216064E-1,0E0,2.5703735E0,0E0,0E0,0E0,3.4747314E-1,0E0,9.8555756E-1,2.422657E-1,9.976759E-2,1.2227421E0,0E0,0E0,0E0,0E0,0E0,0E0,0E0,0E0,0E0,0E0,0E0,0E0,0E0],"parents":[2147483647,0,0,1,1,2,2,3,3,4,4,5,5,6,6,7,7,9,9,11,11,13,13,14,14,15,15,17,17,18,18,20,20,24,24,26,26,27,27,28,28,29,29],"right_children":[2,4,6,8,10,12,14,16,-1,18,-1,20,-1,22,24,26,-1,28,30,-1,32,-1,-1,-1,34,-1,36,38,40,42,-1,-1,-1,-1,-1,-1,-1,-1,-1,-1,-1,-1,-1],"split_conditions":[1.575E2,1.775E1,1.825E1,1.625E1,1.555E1,1.655E1,2.35E2,1.525E2,5.506915E-1,1.095E1,3.2448485E-1,2.425E2,6.326587E-1,1.8349998E1,1.87E1,1.1950001E1,5.0463583E-2,1.07E1,7.5E0,4.0397254E-1,1.085E1,8.144131E-2,3.3806664E-1,1.698061E-1,2.03E1,4.4182774E-1,1.2549999E1,1.82E1,7.5E1,1.1799999E1,5.597309E-1,4.2458892E-1,6.284825E-1,5.210088E-1,3.229874E-1,2.2287981E-1,3.842202E-1,8.624783E-2,3.7183982E-1,-5.854035E-3,8.624783E-2,2.0873414E-1,4.801708E-1],"split_indices":[0,2,2,1,1,2,0,0,0,1,0,0,0,2,2,1,0,1,0,0,1,0,0,0,2,0,1,2,0,1,0,0,0,0,0,0,0,0,0,0,0,0,0],"split_type":[0,0,0,0,0,0,0,0,0,0,0,0,0,0,0,0,0,0,0,0,0,0,0,0,0,0,0,0,0,0,0,0,0,0,0,0,0,0,0,0,0,0,0],"sum_hessian":[7.23E2,3.44E2,3.79E2,1.55E2,1.89E2,2.54E2,1.25E2,1.44E2,1.1E1,1.69E2,2E1,8.7E1,1.67E2,2.1E1,1.04E2,1.43E2,1E0,1.5E1,1.54E2,3.8E1,4.9E1,1E0,2E1,2E0,1.02E2,8.1E1,6.2E1,1.2E1,3E0,1.2E1,1.42E2,2.2E1,2.7E1,9.5E1,7E0,9E0,5.3E1,1E0,1.1E1,2E0,1E0,5E0,7E0],"tree_param":{"num_deleted":"0","num_feature":"3","num_nodes":"43","size_leaf_vector":"0"}},{"base_weights":[1.2103486E0,1.1225971E0,1.3122917E0,9.8950624E-1,1.2267286E0,1.3976642E0,1.080619E0,9.412603E-1,1.4542445E0,1.2868757E0,8.0691046E-1,1.1538682E0,1.5390775E0,9.184103E-1,1.2816666E0,9.648444E-1,6.9505435E-1,7.321249E-1,1.3304914E0,9.971497E-1,5.5019456E-1,1.3172209E0,1.0475155E0,1.0452462E0,1.5791862E0,-1.765604E-1,9.419572E-1,1.030052E0,8.2852805E-1,5.511762E-1,9.5890236E-1,8.670842E-1,1.1047602E-1,1.4013504E0,1.1561575E0,7.6515055E-1,1.3545177E0,5.057071E-1,1.0983516E0,1.8378258E-2,9.5903647E-1,8.217392E-1,1.0808781E0,5.138749E-1,9.179434E-1,6.573957E-1,-4.148388E-1,1.0561788E0,5.541205E-1,-1.56110125E-2,2.4436855E-1,1.1746502E0,1.514159E0,1.500349E-1,8.074306E-1,-1.3119698E-2,5.943648E-1,1.1013983E0,7.92592E-1],"categories":[],"categories_nodes":[],"categories_segments":[],"categories_sizes":[],"default_left":[1,1,1,1,1,1,1,1,0,1,1,1,1,1,0,1,1,1,1,1,0,0,1,0,0,0,1,1,1,1,0,1,1,1,0,1,0,1,0,0,1,0,0,0,0,0,0,0,0,0,0,0,0,0,0,0,0,0,0],"id":8,"left_children":[1,3,5,7,9,11,13,15,-1,17,19,21,23,25,-1,27,29,31,33,35,-1,-1,37,-1,-1,-1,39,41,43,45,-1,47,49,51,-1,53,-1,55,-1,-1,57,-1,-1,-1,-1,-1,-1,-1,-1,-1,-1,-1,-1,-1,-1,-1,-1,-1,-1],"loss_changes":[5.00354E0,4.274292E0,4.996765E0,2.6446838E0,4.4663086E0,6.3949585E0,1.8557892E0,2.8746033E-1,0E0,3.598938E0,9.164963E-1,2.011261E-1,1.2609558E0,1.5843849E0,0E0,4.621277E-1,1.5479088E-1,1.2465639E0,5.2926636E-1,2.9013634E-1,0E0,0E0,1.0971603E0,0E0,0E0,0E0,8.341713E-1,1.2822723E-1,1.0194397E0,1.7092485E0,0E0,1.840868E-1,7.134329E-2,1.2646637E0,0E0,1.9094276E-1,0E0,3.2978415E-1,0E0,0E0,3.828926E-1,0E0,0E0,0E0,0E0,0E0,0E0,0E0,0E0,0E0,0E0,0E0,0E0,0E0,0E0,0E0,0E0,0E0,0E0],"parents":[2147483647,0,0,1,1,2,2,3,3,4,4,5,5,6,6,7,7,9,9,10,10,11,11,12,12,13,13,15,15,16,16,17,17,18,18,19,19,22,22,26,26,27,27,28,28,29,29,31,31,32,32,33,33,35,35,37,37,40,40],"right_children":[2,4,6,8,10,12,14,16,-1,18,20,22,24,26,-1,28,30,32,34,36,-1,-1,38,-1,-1,-1,40,42,44,46,-1,48,50,52,-1,54,-1,56,-1,-1,58,-1,-1,-1,-1,-1,-1,-1,-1,-1,-1,-1,-1,-1,-1,-1,-1,-1,-1],"split_conditions":[1.875E2,1.775E1,1.445E1,1.625E1,1.54E1,1.115E1,1.545E1,1.775E2,4.3627337E-1,1.095E1,1.945E1,1.035E1,1.4200001E1,1.74E1,3.845E-1,1.335E1,1.28E1,1.07E1,1.4E1,1.1E2,1.6505837E-1,3.951663E-1,2.25E2,3.135739E-1,4.7375587E-1,-5.2968122E-2,1.455E1,1.485E1,1.355E1,1.1950001E1,2.8767073E-1,1.025E1,7.5E1,1.16E1,3.4684727E-1,1.555E1,4.0635532E-1,1.045E1,3.295055E-1,5.5134776E-3,1.525E1,2.4652177E-1,3.2426345E-1,1.5416247E-1,2.7538303E-1,1.9721873E-1,-1.24451645E-1,3.1685364E-1,1.6623615E-1,-4.683304E-3,7.331057E-2,3.5239506E-1,4.542477E-1,4.5010474E-2,2.422292E-1,-3.9359094E-3,1.7830946E-1,3.304195E-1,2.377776E-1],"split_indices":[0,2,1,1,1,1,1,0,0,1,2,1,2,2,0,1,1,1,1,0,0,0,0,0,0,0,1,2,1,1,0,1,0,1,0,1,0,1,0,0,1,0,0,0,0,0,0,0,0,0,0,0,0,0,0,0,0,0,0],"split_type":[0,0,0,0,0,0,0,0,0,0,0,0,0,0,0,0,0,0,0,0,0,0,0,0,0,0,0,0,0,0,0,0,0,0,0,0,0,0,0,0,0,0,0,0,0,0,0,0,0,0,0,0,0,0,0,0,0,0,0],"sum_hessian":[7.23E2,3.95E2,3.28E2,1.78E2,2.17E2,2.36E2,9.2E1,1.64E2,1.4E1,1.88E2,2.9E1,9E1,1.46E2,5.4E1,3.8E1,1.47E2,1.7E1,1.5E1,1.73E2,1.5E1,1.4E1,3.1E1,5.9E1,1.3E1,1.33E2,1E0,5.3E1,9.5E1,5.2E1,1.3E1,4E0,1.2E1,3E0,1.18E2,5.5E1,1.1E1,4E0,6E0,5.3E1,1E0,5.2E1,2.2E1,7.3E1,1.3E1,3.9E1,1.2E1,1E0,6E0,6E0,2E0,1E0,4.3E1,7.5E1,1E0,1E1,1E0,5E0,2.5E1,2.7E1],"tree_param":{"num_deleted":"0","num_feature":"3","num_nodes":"59","size_leaf_vector":"0"}},{"base_weights":[8.568467E-1,7.81378E-1,9.2310953E-1,7.2251624E-1,8.755224E-1,9.8710376E-1,7.862711E-1,6.763977E-1,8.9447784E-1,9.22307E-1,3.4641156E-1,9.0567875E-1,1.2667277E0,5.060443E-1,8.5062385E-1,7.199691E-1,3.2051477E-1,3.064882E-1,1.0870216E0,1.063367E0,6.973799E-1,4.390617E-1,5.1345825E-2,8.260405E-1,1.0595982E0,1.4050531E0,7.6127094E-1,7.4432784E-1,4.1386595E-1,1.3379955E-1,8.564541E-1,5.669757E-1,7.5953764E-1,5.5572364E-2,6.675966E-1,5.5451745E-1,5.0107684E-2,1.2551324E0,8.4046483E-1,6.64311E-1,1.0903986E0,7.496885E-1,4.5327914E-1,8.2866035E-2,5.289939E-1,-2.0991516E-1,4.175644E-1,6.58685E-1,9.5560515E-1,9.3478745E-1,-1.8655205E-1,1.1004187E0,2.9117775E-1,3.837776E-2,4.999586E-1,9.2121965E-1,7.03638E-1,6.38635E-1,1.0224024E-1,1.2084922E0,7.08204E-1,-1.9136916E-1,4.8895264E-1,2.9891625E-1,-3.812758E-1,7.926232E-1,1.4353535E0,-9.712728E-2,9.813442E-1,8.198589E-1,1.8362744E-1,5.894856E-1,8.6439687E-1,2.621498E-1,-1.3785076E-1,-3.243637E-2,-2.8243637E-1,5.891889E-1,8.806557E-1,7.7214384E-1,1.0427158E0,1.5621185E-2,-2.9544926E-1,-2.3696423E-2,1.4333725E-1,2.7257866E-1,5.992041E-1,7.0813924E-1,9.850423E-1],"categories":[],"categories_nodes":[],"categories_segments":[],"categories_sizes":[],"default_left":[1,1,1,1,1,1,1,1,1,1,1,1,1,1,1,1,1,1,1,1,1,1,1,1,0,0,1,1,1,0,1,1,1,1,0,0,1,1,1,1,0,1,0,1,0,1,0,1,1,0,1,0,0,1,1,1,0,0,0,0,0,0,0,0,0,0,0,0,0,0,0,0,0,0,0,0,0,0,0,0,0,0,0,0,0,0,0,0,0],"id":9,"left_children":[1,3,5,7,9,11,13,15,17,19,21,23,25,27,29,31,33,35,37,39,41,43,45,47,-1,-1,49,51,53,-1,55,57,59,61,-1,-1,63,65,67,69,-1,71,-1,73,-1,75,-1,77,79,-1,81,-1,-1,83,85,87,-1,-1,-1,-1,-1,-1,-1,-1,-1,-1,-1,-1,-1,-1,-1,-1,-1,-1,-1,-1,-1,-1,-1,-1,-1,-1,-1,-1,-1,-1,-1,-1,-1],"loss_changes":[2.899292E0,1.2792358E0,2.5514832E0,1.1238556E0,2.8490448E0,4.658676E0,1.8417511E0,2.498352E0,4.5350304E0,2.9706345E0,3.0551064E-1,1.5885773E0,2.7758484E0,2.630272E-1,3.07518E-1,5.1374054E-1,1.8939908E0,7.352928E-1,2.7146912E-1,3.0731201E-2,2.730751E-1,2.4446547E-1,4.7036758E-1,2.341179E0,0E0,0E0,2.4768677E0,6.477585E-1,6.596749E-1,0E0,3.415146E-1,1.1335983E0,1.9327621E0,1.484825E0,0E0,0E0,8.652929E-1,2.7931976E-1,2.2087145E0,3.7283683E-1,0E0,1.8876266E-1,0E0,1.5485038E-1,0E0,2.9451713E-2,0E0,4.529705E-1,3.9348602E-1,0E0,7.066358E-2,0E0,0E0,3.5972953E-2,2.2029924E-1,2.136116E-1,0E0,0E0,0E0,0E0,0E0,0E0,0E0,0E0,0E0,0E0,0E0,0E0,0E0,0E0,0E0,0E0,0E0,0E0,0E0,0E0,0E0,0E0,0E0,0E0,0E0,0E0,0E0,0E0,0E0,0E0,0E0,0E0,0E0],"parents":[2147483647,0,0,1,1,2,2,3,3,4,4,5,5,6,6,7,7,8,8,9,9,10,10,11,11,12,12,13,13,14,14,15,15,16,16,17,17,18,18,19,19,20,20,21,21,22,22,23,23,26,26,27,27,28,28,30,30,31,31,32,32,33,33,36,36,37,37,38,38,39,39,41,41,43,43,45,45,47,47,48,48,50,50,53,53,54,54,55,55],"right_children":[2,4,6,8,10,12,14,16,18,20,22,24,26,28,30,32,34,36,38,40,42,44,46,48,-1,-1,50,52,54,-1,56,58,60,62,-1,-1,64,66,68,70,-1,72,-1,74,-1,76,-1,78,80,-1,82,-1,-1,84,86,88,-1,-1,-1,-1,-1,-1,-1,-1,-1,-1,-1,-1,-1,-1,-1,-1,-1,-1,-1,-1,-1,-1,-1,-1,-1,-1,-1,-1,-1,-1,-1,-1,-1],"split_conditions":[1.575E2,1.8650002E1,1.825E1,1.225E2,1.475E2,1.775E1,2.5E2,1.825E1,1.655E1,1.4E1,1.985E1,1.355E1,1.4E1,1.725E2,1.8599998E1,1.55E1,1.175E1,1.56E1,1.34E1,1.045E1,1.5450001E1,1.905E1,2.08E1,2.85E2,3.1787947E-1,4.2151597E-1,2.075E2,1.385E1,1.9E1,4.013987E-2,6.4E2,1.125E2,1.6150002E1,4E1,2.0027898E-1,1.6635524E-1,1.18E1,1.7150002E1,1.3700001E1,1.025E1,3.271196E-1,1.435E1,1.3598375E-1,1.145E1,1.5869817E-1,1.1200001E1,1.2526932E-1,1.215E1,1.6349998E1,2.8043625E-1,2.8E2,3.3012563E-1,8.735333E-2,2.25E2,2.075E2,1.085E1,2.1109141E-1,1.915905E-1,3.0672073E-2,3.6254767E-1,2.124612E-1,-5.741075E-2,1.466858E-1,8.9674875E-2,-1.14382744E-1,2.3778698E-1,4.3060607E-1,-2.9138185E-2,2.9440328E-1,2.4595769E-1,5.5088233E-2,1.7684568E-1,2.5931907E-1,7.8644946E-2,-4.135523E-2,-9.730912E-3,-8.4730916E-2,1.7675667E-1,2.6419672E-1,2.3164316E-1,3.1281474E-1,4.6863556E-3,-8.863478E-2,-7.1089272E-3,4.3001175E-2,8.17736E-2,1.7976125E-1,2.1244179E-1,2.955127E-1],"split_indices":[0,2,2,0,0,2,0,2,2,1,2,1,1,0,2,2,1,2,1,1,1,2,2,0,0,0,0,1,2,0,0,0,2,0,0,0,1,2,1,1,0,1,0,1,0,1,0,1,2,0,0,0,0,0,0,1,0,0,0,0,0,0,0,0,0,0,0,0,0,0,0,0,0,0,0,0,0,0,0,0,0,0,0,0,0,0,0,0,0],"split_type":[0,0,0,0,0,0,0,0,0,0,0,0,0,0,0,0,0,0,0,0,0,0,0,0,0,0,0,0,0,0,0,0,0,0,0,0,0,0,0,0,0,0,0,0,0,0,0,0,0,0,0,0,0,0,0,0,0,0,0,0,0,0,0,0,0,0,0,0,0,0,0,0,0,0,0,0,0,0,0,0,0,0,0,0,0,0,0,0,0],"sum_hessian":[7.23E2,3.44E2,3.79E2,2.17E2,1.27E2,2.54E2,1.25E2,1.75E2,4.2E1,1.16E2,1.1E1,2E2,5.4E1,2.5E1,1E2,1.55E2,2E1,1.1E1,3.1E1,6.9E1,4.7E1,8E0,3E0,1.36E2,6.4E1,4.1E1,1.3E1,5E0,2E1,1E0,9.9E1,3.5E1,1.2E2,1.2E1,8E0,5E0,6E0,1.6E1,1.5E1,6E0,6.3E1,3.7E1,1E1,2E0,6E0,2E0,1E0,6.2E1,7.4E1,1.1E1,2E0,2E0,3E0,4E0,1.6E1,6.6E1,3.3E1,3E1,5E0,1E1,1.1E2,8E0,4E0,4E0,2E0,6E0,1E1,2E0,1.3E1,4E0,2E0,1.8E1,1.9E1,1E0,1E0,1E0,1E0,5E1,1.2E1,2.7E1,4.7E1,1E0,1E0,3E0,1E0,6E0,1E1,1.8E1,4.8E1],"tree_param":{"num_deleted":"0","num_feature":"3","num_nodes":"89","size_leaf_vector":"0"}},{"base_weights":[6.0943985E-1,5.00002E-1,6.3412976E-1,5.4989326E-1,3.245938E-1,6.925151E-1,5.404947E-1,4.8335266E-1,6.6585135E-1,8.354535E-2,5.465485E-1,6.0394233E-1,7.947712E-1,9.498016E-1,5.155989E-1,5.368596E-1,1.4269152E-1,9.443817E-1,5.525433E-1,-3.6543083E-1,2.4980193E-1,6.055499E-1,2.8383523E-1,6.3854784E-1,4.1366214E-1,6.155996E-1,8.7550294E-1,8.584499E-2,5.2938396E-1,4.130527E-1,6.0092545E-1,9.168224E-2,3.2639217E-1,2.9766157E-1,7.2510076E-1,-8.4420776E-1,2.3515637E-1,6.148344E-1,-2.785417E-1,2.6183128E-1,6.4424133E-1,7.150543E-1,5.8374625E-1,-3.051327E-1,5.2332807E-1,2.5510105E-1,6.553473E-1,8.957797E-1,1.1422253E-1,-2.913847E-1,3.7045974E-1,5.666044E-1,4.7941542E-1,6.674881E-1,2.690212E-1,3.828303E-2,1.0024667E-1,3.684311E-1,-6.1047237E-2,3.4968263E-1,8.2109994E-1,3.1912804E-2,3.2082176E-1,1.0368751E0,-6.6425085E-2,1.4811325E-1,-5.288975E-1,3.7023544E-1,2.2511482E-2,5.4905087E-1,7.83357E-1,-2.4511719E-1,6.116208E-1,-3.4220695E-2,-6.943903E-1,2.8887013E-1,6.9577074E-1,3.9421082E-1,-6.17822E-2,7.3163944E-1,1.0553197E0,-3.238516E-1,3.6819777E-1,-7.874966E-2,-3.3601317E-1,6.046788E-1,4.1870436E-1,3.862365E-1,5.4646087E-1],"categories":[],"categories_nodes":[],"categories_segments":[],"categories_sizes":[],"default_left":[1,1,1,1,1,1,1,1,1,1,1,1,1,0,1,1,1,0,1,1,1,1,0,1,1,1,1,1,1,1,0,1,0,1,1,0,1,1,1,1,0,1,1,1,1,1,0,1,1,1,0,1,1,0,0,0,0,0,0,0,0,0,0,0,0,0,0,0,0,0,0,0,0,0,0,0,0,0,0,0,0,0,0,0,0,0,0,0,0],"id":10,"left_children":[1,3,5,7,9,11,13,15,17,19,21,23,25,-1,27,29,31,-1,33,35,37,39,-1,41,43,45,47,49,51,53,-1,55,-1,57,59,-1,61,63,65,67,-1,69,71,73,75,77,-1,79,81,83,-1,85,87,-1,-1,-1,-1,-1,-1,-1,-1,-1,-1,-1,-1,-1,-1,-1,-1,-1,-1,-1,-1,-1,-1,-1,-1,-1,-1,-1,-1,-1,-1,-1,-1,-1,-1,-1,-1],"loss_changes":[1.6391907E0,1.0291939E0,2.8347778E0,4.9604416E-1,1.7198989E0,2.7624512E0,1.8539886E0,1.2175636E0,6.143379E-1,1.3602546E0,9.163141E-2,1.026474E0,1.8188019E0,0E0,1.2519493E0,2.3562431E-1,7.315044E-2,0E0,1.0156546E0,1.6362573E0,2.6784708E0,4.2037964E-3,0E0,2.7018738E-1,2.7609854E0,6.0658836E-1,1.5956802E0,9.668675E-1,1.2265015E-1,6.999526E-1,0E0,7.355958E-4,0E0,3.525051E-1,2.895136E-1,0E0,4.1994497E-2,2.3690286E0,7.1922994E-1,6.9495246E-2,0E0,2.9555893E-1,2.4834442E0,5.0351024E-1,9.71498E-1,3.3292603E-1,0E0,2.029892E0,5.642813E-1,1.1497349E-2,0E0,4.0003967E-1,3.9491844E-1,0E0,0E0,0E0,0E0,0E0,0E0,0E0,0E0,0E0,0E0,0E0,0E0,0E0,0E0,0E0,0E0,0E0,0E0,0E0,0E0,0E0,0E0,0E0,0E0,0E0,0E0,0E0,0E0,0E0,0E0,0E0,0E0,0E0,0E0,0E0,0E0],"parents":[2147483647,0,0,1,1,2,2,3,3,4,4,5,5,6,6,7,7,8,8,9,9,10,10,11,11,12,12,14,14,15,15,16,16,18,18,19,19,20,20,21,21,23,23,24,24,25,25,26,26,27,27,28,28,29,29,31,31,33,33,34,34,36,36,37,37,38,38,39,39,41,41,42,42,43,43,44,44,45,45,47,47,48,48,49,49,51,51,52,52],"right_children":[2,4,6,8,10,12,14,16,18,20,22,24,26,-1,28,30,32,-1,34,36,38,40,-1,42,44,46,48,50,52,54,-1,56,-1,58,60,-1,62,64,66,68,-1,70,72,74,76,78,-1,80,82,84,-1,86,88,-1,-1,-1,-1,-1,-1,-1,-1,-1,-1,-1,-1,-1,-1,-1,-1,-1,-1,-1,-1,-1,-1,-1,-1,-1,-1,-1,-1,-1,-1,-1,-1,-1,-1,-1,-1],"split_conditions":[1.6349998E1,1.6150002E1,1.405E1,1.545E1,1.95E2,1.165E1,1.695E1,1.525E1,7.5E1,1.1299999E1,4.8E2,1.135E1,1.15E2,2.849405E-1,1.725E1,1.215E1,1.125E2,2.8331453E-1,1.16E1,1.05E2,1.05E2,2.25E2,8.515057E-2,1.725E1,7.5E1,1.7650002E1,1.96E1,1.5799999E1,1.945E1,7.5E1,1.8027765E-1,1.345E1,9.791765E-2,1.125E1,2.625E2,-2.5326234E-1,1.65E2,1.215E1,1.18E1,1.12E1,1.9327241E-1,1.6650002E1,1.7349998E1,1.815E1,2.45E2,4.5E1,1.9660419E-1,1.775E1,1.9900002E1,5E1,1.1113793E-1,2.9E2,1.995E1,2.0024644E-1,8.0706365E-2,1.148491E-2,3.0074002E-2,1.1052933E-1,-1.8314172E-2,1.0490479E-1,2.4633E-1,9.5738415E-3,9.624653E-2,3.1106254E-1,-1.9927526E-2,4.4433977E-2,-1.5866926E-1,1.1107064E-1,6.753445E-3,1.6471526E-1,2.3500712E-1,-7.353516E-2,1.8348624E-1,-1.0266209E-2,-2.083171E-1,8.666104E-2,2.0873123E-1,1.1826325E-1,-1.853466E-2,2.1949184E-1,3.165959E-1,-9.715548E-2,1.10459335E-1,-2.3624899E-2,-1.0080396E-1,1.8140365E-1,1.2561132E-1,1.1587095E-1,1.6393827E-1],"split_indices":[2,2,1,2,0,1,2,2,0,1,0,1,0,0,2,2,0,0,1,0,0,0,0,2,0,2,2,1,2,0,0,1,0,1,0,0,0,1,1,1,0,2,2,2,0,0,0,2,2,0,0,0,2,0,0,0,0,0,0,0,0,0,0,0,0,0,0,0,0,0,0,0,0,0,0,0,0,0,0,0,0,0,0,0,0,0,0,0,0],"split_type":[0,0,0,0,0,0,0,0,0,0,0,0,0,0,0,0,0,0,0,0,0,0,0,0,0,0,0,0,0,0,0,0,0,0,0,0,0,0,0,0,0,0,0,0,0,0,0,0,0,0,0,0,0,0,0,0,0,0,0,0,0,0,0,0,0,0,0,0,0,0,0,0,0,0,0,0,0,0,0,0,0,0,0,0,0,0,0,0,0],"sum_hessian":[7.23E2,1.37E2,5.86E2,1.05E2,3.2E1,3.57E2,2.29E2,7E1,3.5E1,1.6E1,1.6E1,1.95E2,1.62E2,1.1E1,2.18E2,6E1,1E1,8E0,2.7E1,4E0,1.2E1,1.2E1,4E0,1.63E2,3.2E1,5.3E1,1.09E2,7E0,2.11E2,2.3E1,3.7E1,9E0,1E0,1.2E1,1.5E1,2E0,2E0,7E0,5E0,2E0,1E1,6.3E1,1E2,4E0,2.8E1,6E0,4.7E1,1.06E2,3E0,3E0,4E0,1.15E2,9.6E1,7E0,1.6E1,2E0,7E0,1E1,2E0,4E0,1.1E1,1E0,1E0,4E0,3E0,2E0,3E0,1E0,1E0,2.1E1,4.2E1,3E0,9.7E1,3E0,1E0,1.3E1,1.5E1,4E0,2E0,5.5E1,5.1E1,1E0,2E0,1E0,2E0,8.9E1,2.6E1,4.3E1,5.3E1],"tree_param":{"num_deleted":"0","num_feature":"3","num_nodes":"89","size_leaf_vector":"0"}},{"base_weights":[4.3219334E-1,3.9036492E-1,4.690318E-1,4.0804297E-1,2.6959676E-1,4.9546346E-1,3.5678592E-1,3.131557E-1,4.4127506E-1,1.18410185E-1,4.360174E-1,3.8816783E-1,5.3383E-1,1.275666E-1,4.0206027E-1,3.4415057E-1,-1.2691259E-2,3.2196474E-1,4.5363307E-1,-1.1638387E-2,2.7110338E-1,1.6460991E-1,4.8718515E-1,5.4883575E-1,3.066816E-1,5.752051E-1,4.2504394E-1,4.7027588E-2,1.3707082E-1,4.712802E-1,2.2967348E-1,4.797112E-1,2.2334054E-1,1.345787E-1,-8.421103E-2,3.8082358E-1,-6.75354E-2,8.0042267E-1,4.4409528E-1,-3.8602974E-2,1.0908762E-1,5.3750676E-1,1.6407204E-1,3.0548096E-2,1.9048834E-1,2.4968423E-1,6.6165304E-1,2.9253388E-2,3.570408E-1,5.027863E-1,7.5719064E-1,3.172551E-1,7.631897E-1,-5.0974846E-2,1.2151623E-1,4.7794086E-1,9.243584E-2,-9.575844E-2,2.518414E-1,6.559292E-1,2.1277313E-1,-6.7108727E-1,3.1161347E-1,-5.0946236E-2,2.528143E-1,1.2540436E-1,-1.5121499E-1,-6.043434E-2,4.059082E-1,8.693504E-2,-1.4800389E-1,1.5548666E-1,4.6407545E-1,-1.291771E-1,1.486969E-3,1.0517979E-1,6.867249E-1,2.525444E-1,-2.445465E-1,3.049061E-1,5.3368586E-1,6.766862E-1,1.3729367E0,4.0061447E-1,4.2772733E-2,2.2983599E-1,4.9080282E-1],"categories":[],"categories_nodes":[],"categories_segments":[],"categories_sizes":[],"default_left":[1,1,1,1,1,1,1,1,1,1,1,1,1,1,1,1,1,1,1,1,1,1,0,1,1,1,1,1,0,1,1,1,1,1,1,1,1,0,1,1,0,0,0,0,0,0,1,1,0,1,1,1,0,0,0,1,0,0,0,0,0,0,0,0,0,0,0,0,0,0,0,0,0,0,0,0,0,0,0,0,0,0,0,0,0,0,0],"id":11,"left_children":[1,3,5,7,9,11,13,15,17,19,21,23,25,27,29,31,33,35,37,39,41,43,-1,45,47,49,51,53,-1,55,57,59,61,63,65,67,69,-1,71,73,-1,-1,-1,-1,-1,-1,75,77,-1,79,81,83,-1,-1,-1,85,-1,-1,-1,-1,-1,-1,-1,-1,-1,-1,-1,-1,-1,-1,-1,-1,-1,-1,-1,-1,-1,-1,-1,-1,-1,-1,-1,-1,-1,-1,-1],"loss_changes":[9.325104E-1,6.2654877E-1,9.506302E-1,8.0464554E-1,1.1309178E0,1.0483322E0,7.374191E-1,8.2243395E-1,1.7684937E-1,5.19451E-1,2.2532558E-1,9.3142986E-1,7.5474167E-1,4.27033E-3,6.435137E-1,1.1047659E0,9.559472E-2,5.759318E-1,2.928276E-1,5.304102E-2,2.5397223E-1,1.1527494E-2,0E0,7.460308E-1,7.998767E-1,1.7016106E0,2.127015E0,2.8094476E-2,0E0,6.684971E-2,1.6839886E-1,1.4597712E0,3.4462235E0,7.868689E-2,1.0323337E-1,2.569754E-1,6.258674E-2,0E0,1.0407677E0,4.7396533E-2,0E0,0E0,0E0,0E0,0E0,0E0,1.9285488E-1,6.7312944E-1,0E0,5.46545E-1,1.2024746E0,1.1497793E0,0E0,0E0,0E0,2.4413109E-2,0E0,0E0,0E0,0E0,0E0,0E0,0E0,0E0,0E0,0E0,0E0,0E0,0E0,0E0,0E0,0E0,0E0,0E0,0E0,0E0,0E0,0E0,0E0,0E0,0E0,0E0,0E0,0E0,0E0,0E0,0E0],"parents":[2147483647,0,0,1,1,2,2,3,3,4,4,5,5,6,6,7,7,8,8,9,9,10,10,11,11,12,12,13,13,14,14,15,15,16,16,17,17,18,18,19,19,20,20,21,21,23,23,24,24,25,25,26,26,27,27,29,29,30,30,31,31,32,32,33,33,34,34,35,35,36,36,38,38,39,39,46,46,47,47,49,49,50,50,51,51,55,55],"right_children":[2,4,6,8,10,12,14,16,18,20,22,24,26,28,30,32,34,36,38,40,42,44,-1,46,48,50,52,54,-1,56,58,60,62,64,66,68,70,-1,72,74,-1,-1,-1,-1,-1,-1,76,78,-1,80,82,84,-1,-1,-1,86,-1,-1,-1,-1,-1,-1,-1,-1,-1,-1,-1,-1,-1,-1,-1,-1,-1,-1,-1,-1,-1,-1,-1,-1,-1,-1,-1,-1,-1,-1,-1],"split_conditions":[1.575E2,1.545E1,1.955E1,1.6650002E1,1.6150002E1,1.115E1,2.275E2,1.645E1,1.095E1,8.5E1,4.25E1,1.035E1,1.405E1,1.34E1,4.9E2,1.115E1,1.5E1,1.07E1,1.675E1,1.585E1,1.8900002E1,1.775E1,1.4615555E-1,1.6349998E1,2.25E2,1.7849998E1,1.55E1,1.95E2,4.112125E-2,2.11E1,5.05E2,7.5E1,1.1299999E1,1.16E1,1.065E1,1.685E1,1.5E1,2.401268E-1,1.725E1,1.75E1,3.2726288E-2,1.6125204E-1,4.9221613E-2,9.164429E-3,5.7146505E-2,7.490527E-2,1.95E2,1.69E1,1.07112244E-1,1.165E1,4.95E2,1.525E1,2.2895691E-1,-1.52924545E-2,3.645487E-2,2.5E2,2.7730752E-2,-2.8727533E-2,7.555242E-2,1.9677877E-1,6.383194E-2,-2.0132619E-1,9.3484044E-2,-1.5283871E-2,7.584429E-2,3.7621308E-2,-4.53645E-2,-1.8130302E-2,1.2177246E-1,2.6080513E-2,-4.440117E-2,4.6646E-2,1.3922264E-1,-3.875313E-2,4.460907E-4,3.155394E-2,2.0601748E-1,7.576332E-2,-7.336395E-2,9.1471836E-2,1.6010576E-1,2.0300588E-1,4.1188103E-1,1.2018435E-1,1.283182E-2,6.89508E-2,1.4724085E-1],"split_indices":[0,1,2,2,1,1,0,2,1,0,0,1,1,1,0,1,0,1,2,1,2,2,0,2,0,2,1,0,0,2,0,0,1,1,1,2,0,0,2,0,0,0,0,0,0,0,0,2,0,1,0,1,0,0,0,0,0,0,0,0,0,0,0,0,0,0,0,0,0,0,0,0,0,0,0,0,0,0,0,0,0,0,0,0,0,0,0],"split_type":[0,0,0,0,0,0,0,0,0,0,0,0,0,0,0,0,0,0,0,0,0,0,0,0,0,0,0,0,0,0,0,0,0,0,0,0,0,0,0,0,0,0,0,0,0,0,0,0,0,0,0,0,0,0,0,0,0,0,0,0,0,0,0,0,0,0,0,0,0,0,0,0,0,0,0,0,0,0,0,0,0,0,0,0,0,0,0],"sum_hessian":[7.23E2,3.44E2,3.79E2,2.98E2,4.6E1,3.04E2,7.5E1,8E1,2.18E2,2.5E1,2.1E1,8.3E1,2.21E2,1.3E1,6.2E1,7.3E1,7E0,2.3E1,1.95E2,1.4E1,1.1E1,4E0,1.7E1,2.6E1,5.7E1,1.57E2,6.4E1,2E0,1.1E1,4.3E1,1.9E1,3.3E1,4E1,2E0,5E0,2E1,3E0,3E0,1.92E2,1.2E1,2E0,2E0,9E0,1E0,3E0,8E0,1.8E1,9E0,4.8E1,1.15E2,4.2E1,5E1,1.4E1,1E0,1E0,4.2E1,1E0,1E0,1.8E1,1.9E1,1.4E1,3E0,3.7E1,1E0,1E0,1E0,4E0,1E0,1.9E1,1E0,2E0,1.3E1,1.79E2,3E0,9E0,1E0,1.7E1,5E0,4E0,1.7E1,9.8E1,3.9E1,3E0,3.8E1,1.2E1,3E0,3.9E1],"tree_param":{"num_deleted":"0","num_feature":"3","num_nodes":"87","size_leaf_vector":"0"}},{"base_weights":[3.0686882E-1,2.4412939E-1,3.210957E-1,2.1303935E-1,3.9837506E-1,3.5177922E-1,2.7194002E-1,2.7690712E-1,1.8592613E-2,1.9547442E-1,5.0035584E-1,3.0371574E-1,4.074152E-1,5.2702934E-1,2.567208E-1,1.8998942E-1,5.825562E-1,1.4326777E-1,-2.4508448E-1,-2.0365715E-2,2.2500014E-1,3.259629E-1,9.164266E-2,3.0434495E-1,4.5430955E-1,1.0348892E-1,5.561249E-1,-3.2140255E-2,2.6641026E-1,2.5447118E-1,-8.6114205E-2,6.7017365E-1,3.7831044E-1,-1.0209825E-2,2.385009E-1,1.7990653E-1,-7.060568E-1,3.10337E-1,5.831642E-1,-1.5942128E-1,2.7230373E-1,1.08831406E-1,3.2651684E-1,4.0100163E-1,6.1951655E-1,-2.700615E-1,1.6462478E-1,1.6717263E-1,2.8781545E-1,4.1574913E-1,1.7553434E-1,-4.331201E-1,7.813454E-3,-3.169632E-2,4.572187E-4,-4.92754E-2,2.6658854E-1,8.159704E-1,-1.10500336E-1,-1.5498018E-1,-8.050809E-1,3.7163362E-1,2.2855683E-1,2.6315975E-1,-2.4513888E-1,-1.2802124E-2,4.1645694E-1,-3.0670166E-2,3.050569E-1,3.7565556E-1,2.3174426E-1,-2.1141052E-2,4.165145E-1,7.07839E-1,-2.1136284E-2,4.039097E-2,1.855855E-1,2.5943956E-1,7.9888776E-2,3.6910003E-1,2.4983281E-1],"categories":[],"categories_nodes":[],"categories_segments":[],"categories_sizes":[],"default_left":[1,1,1,1,1,1,1,1,1,1,0,1,1,1,1,1,1,1,1,0,0,1,1,1,1,0,0,1,1,1,1,0,0,1,1,1,1,1,0,1,1,1,1,1,1,0,1,1,1,0,0,0,0,0,0,0,0,0,0,0,0,0,0,0,0,0,0,0,0,0,0,0,0,0,0,0,0,0,0,0,0],"id":12,"left_children":[1,3,5,7,9,11,13,15,17,19,-1,21,23,25,27,29,31,33,35,-1,-1,37,39,41,43,-1,-1,45,47,49,51,-1,-1,53,55,57,59,61,-1,63,65,67,69,71,73,-1,75,77,79,-1,-1,-1,-1,-1,-1,-1,-1,-1,-1,-1,-1,-1,-1,-1,-1,-1,-1,-1,-1,-1,-1,-1,-1,-1,-1,-1,-1,-1,-1,-1,-1],"loss_changes":[5.678406E-1,5.7691E-1,7.8969574E-1,1.4478602E0,3.574164E-1,8.335724E-1,7.5761986E-1,2.2271566E0,1.0213321E0,6.193781E-2,0E0,8.948593E-1,6.495819E-1,9.032488E-2,6.2152386E-1,1.2681689E0,8.648062E-2,3.0937418E-1,2.086115E0,0E0,0E0,5.30386E-1,9.505607E-1,1.9854927E-1,7.2032356E-1,0E0,0E0,4.1897547E-1,4.0221596E-1,6.5267587E-1,4.5969242E-1,0E0,0E0,2.0772687E-3,1.1821473E-1,1.1984689E0,1.4807773E-1,7.622318E-1,0E0,3.905143E-1,4.9851865E-1,2.0097248E-1,1.3648033E-1,5.7199E-1,1.4295616E0,0E0,5.5241734E-3,3.014102E-1,4.4190693E-1,0E0,0E0,0E0,0E0,0E0,0E0,0E0,0E0,0E0,0E0,0E0,0E0,0E0,0E0,0E0,0E0,0E0,0E0,0E0,0E0,0E0,0E0,0E0,0E0,0E0,0E0,0E0,0E0,0E0,0E0,0E0,0E0],"parents":[2147483647,0,0,1,1,2,2,3,3,4,4,5,5,6,6,7,7,8,8,9,9,11,11,12,12,13,13,14,14,15,15,16,16,17,17,18,18,21,21,22,22,23,23,24,24,27,27,28,28,29,29,30,30,33,33,34,34,35,35,36,36,37,37,39,39,40,40,41,41,42,42,43,43,44,44,46,46,47,47,48,48],"right_children":[2,4,6,8,10,12,14,16,18,20,-1,22,24,26,28,30,32,34,36,-1,-1,38,40,42,44,-1,-1,46,48,50,52,-1,-1,54,56,58,60,62,-1,64,66,68,70,72,74,-1,76,78,80,-1,-1,-1,-1,-1,-1,-1,-1,-1,-1,-1,-1,-1,-1,-1,-1,-1,-1,-1,-1,-1,-1,-1,-1,-1,-1,-1,-1,-1,-1,-1,-1],"split_conditions":[1.6349998E1,1.355E1,1.405E1,1.195E1,1.435E1,1.165E1,1.695E1,1.155E1,1.535E1,1.5E2,1.5010676E-1,1.145E1,1.15E2,1.15E2,1.725E1,1.105E1,2.85E2,1.125E2,9E1,-6.109715E-3,6.750005E-2,2.09E1,2.45E2,1.7650002E1,1.8150002E1,3.1046677E-2,1.6683748E-1,1.5799999E1,1.455E1,7.5E1,4.5E1,2.010521E-1,1.1349314E-1,1.345E1,1.205E1,1.215E1,1.35E2,1.825E1,1.7494927E-1,1.05E2,1.695E1,1.265E1,1.275E1,1.175E1,1.96E1,-8.101845E-2,9.25E1,1.425E1,1.525E1,1.24724746E-1,5.2660305E-2,-1.2993604E-1,2.3440362E-3,-9.508897E-3,1.3716561E-4,-1.478262E-2,7.9976566E-2,2.4479114E-1,-3.3150103E-2,-4.6494056E-2,-2.4152428E-1,1.1149009E-1,6.856705E-2,7.894793E-2,-7.354167E-2,-3.8406374E-3,1.2493709E-1,-9.20105E-3,9.1517076E-2,1.1269667E-1,6.952328E-2,-6.342316E-3,1.2495435E-1,2.1235171E-1,-6.3408855E-3,1.2117291E-2,5.5675652E-2,7.783187E-2,2.3966635E-2,1.10730015E-1,7.4949846E-2],"split_indices":[2,1,1,1,2,1,2,1,2,0,0,1,0,0,2,1,0,0,0,0,0,2,0,2,2,0,0,1,1,0,0,0,0,1,1,1,0,2,0,0,2,1,1,1,2,0,0,1,1,0,0,0,0,0,0,0,0,0,0,0,0,0,0,0,0,0,0,0,0,0,0,0,0,0,0,0,0,0,0,0,0],"split_type":[0,0,0,0,0,0,0,0,0,0,0,0,0,0,0,0,0,0,0,0,0,0,0,0,0,0,0,0,0,0,0,0,0,0,0,0,0,0,0,0,0,0,0,0,0,0,0,0,0,0,0,0,0,0,0,0,0,0,0,0,0,0,0,0,0,0,0,0,0,0,0,0,0,0,0,0,0,0,0,0,0],"sum_hessian":[7.23E2,1.37E2,5.86E2,1.16E2,2.1E1,3.57E2,2.29E2,8.7E1,2.9E1,8E0,1.3E1,1.95E2,1.62E2,1.1E1,2.18E2,6.9E1,1.8E1,2E1,9E0,1E0,7E0,1.76E2,1.9E1,5.3E1,1.09E2,1E0,1E1,7E0,2.11E2,5.6E1,1.3E1,1.1E1,7E0,8E0,1.2E1,5E0,4E0,1.68E2,8E0,8E0,1.1E1,6E0,4.7E1,8.5E1,2.4E1,3E0,4E0,3.9E1,1.72E2,1.7E1,3.9E1,2E0,1.1E1,2E0,6E0,1E0,1.1E1,1E0,4E0,1E0,3E0,9.4E1,7.4E1,1E0,7E0,4E0,7E0,4E0,2E0,2.9E1,1.8E1,3E0,8.2E1,2.1E1,3E0,1E0,3E0,1.8E1,2.1E1,5.2E1,1.2E2],"tree_param":{"num_deleted":"0","num_feature":"3","num_nodes":"81","size_leaf_vector":"0"}},{"base_weights":[2.1770625E-1,1.9020115E-1,2.4210508E-1,1.0100402E-1,2.0156796E-1,1.9109653E-1,2.59396E-1,6.410144E-2,2.4521446E-1,4.0750435E-1,1.932057E-1,-1.3205528E-2,2.1144734E-1,3.4957525E-1,2.2952878E-1,1.2158322E-1,-6.714075E-2,3.0520386E-1,-8.735561E-2,9.130573E-2,4.2999363E-1,-8.586311E-2,2.012838E-1,1.5024975E-1,-2.959509E-1,2.8984147E-1,1.6611303E-1,2.0761786E-1,4.4375497E-1,-6.418773E-2,2.3830996E-1,2.3462296E-1,-1.1008422E-2,-1.1970925E-1,5.4781437E-2,-1.7311096E-2,3.6184153E-1,4.697361E-1,1.806825E-1,-4.9861845E-1,1.0329819E-1,2.1707805E-1,1.1601367E-1,1.8865204E-1,3.6162693E-2,-6.388283E-2,-3.5201263E-1,1.6974497E-1,3.8582397E-1,2.5990622E-2,1.8120088E-1,3.7951088E-1,8.1488185E-2,3.7291026E-1,7.244641E-1,3.267827E-1,-4.3911123E-1,2.6385316E-1,1.709059E-1,-2.0384979E-1,2.5054412E-2,1.0458088E-1,3.9237747E-1,2.8616905E-2,2.4240685E-1,3.8904476E-1,-9.167035E-3,1.9890484E-1,2.9392383E-1,1.8701114E-2,2.2574607E-1,-4.5040703E-1,-7.761192E-2,6.3121796E-2,1.8046816E-1,4.2088032E-1,1.666708E-1,-1.1567783E-1,1.6116142E-1,1.2725869E-1,2.0684782E-1,3.993102E-1,8.0859184E-2,2.997032E-1,-2.2663388E-3,5.559399E-1,3.4482367E-2,8.042695E-1,1.22816086E-1,3.923664E-1,6.501579E-2,-1.0091543E0,8.72879E-2,2.4848516E-1,5.036533E-1,1.2813605E-1,3.0228287E-1],"categories":[],"categories_nodes":[],"categories_segments":[],"categories_sizes":[],"default_left":[1,1,1,1,1,1,1,1,1,1,1,1,1,1,1,1,1,1,0,0,1,1,1,1,1,1,1,1,1,1,1,0,1,0,0,0,1,0,1,0,1,1,1,0,0,0,1,1,1,1,1,1,1,1,1,1,1,1,1,0,0,0,0,0,0,0,0,0,0,0,0,0,0,0,0,0,0,0,0,0,0,0,0,0,0,0,0,0,0,0,0,0,0,0,0,0,0],"id":13,"left_children":[1,3,5,7,9,11,13,15,17,19,21,23,25,27,29,31,33,35,-1,-1,37,39,41,43,45,47,49,51,53,55,57,-1,59,-1,-1,-1,61,-1,63,-1,65,67,69,-1,-1,-1,71,73,75,77,79,81,83,85,87,89,91,93,95,-1,-1,-1,-1,-1,-1,-1,-1,-1,-1,-1,-1,-1,-1,-1,-1,-1,-1,-1,-1,-1,-1,-1,-1,-1,-1,-1,-1,-1,-1,-1,-1,-1,-1,-1,-1,-1,-1],"loss_changes":[4.3982315E-1,3.294325E-1,2.855835E-1,2.0247263E-1,4.465065E-1,4.1856337E-1,6.7660904E-1,2.6466036E-1,1.8626666E-1,3.8960934E-2,6.823139E-1,5.066288E-1,2.7526283E-1,8.169956E-1,5.672407E-1,3.6229786E-1,7.7059776E-2,1.3412929E-1,0E0,0E0,1.42092705E-2,7.542024E-1,3.6133957E-1,2.3846269E-2,2.9552966E-2,3.0337763E-1,1.2213898E-1,5.978178E-1,5.2530956E-1,1.169582E0,3.130226E-1,0E0,8.856021E-2,0E0,0E0,0E0,6.0990453E-3,0E0,2.1221511E-2,0E0,2.2852224E-1,2.7810192E-1,4.9766022E-1,0E0,0E0,0E0,4.604155E-2,6.9019794E-3,6.0457468E-2,1.5268888E-1,4.8383355E-2,3.8669348E-2,3.2965615E-1,2.0868697E0,2.3732543E-1,4.3160558E-2,1.2883676E0,4.2395115E-1,2.9840505E-1,0E0,0E0,0E0,0E0,0E0,0E0,0E0,0E0,0E0,0E0,0E0,0E0,0E0,0E0,0E0,0E0,0E0,0E0,0E0,0E0,0E0,0E0,0E0,0E0,0E0,0E0,0E0,0E0,0E0,0E0,0E0,0E0,0E0,0E0,0E0,0E0,0E0,0E0],"parents":[2147483647,0,0,1,1,2,2,3,3,4,4,5,5,6,6,7,7,8,8,9,9,10,10,11,11,12,12,13,13,14,14,15,15,16,16,17,17,20,20,21,21,22,22,23,23,24,24,25,25,26,26,27,27,28,28,29,29,30,30,32,32,36,36,38,38,40,40,41,41,42,42,46,46,47,47,48,48,49,49,50,50,51,51,52,52,53,53,54,54,55,55,56,56,57,57,58,58],"right_children":[2,4,6,8,10,12,14,16,18,20,22,24,26,28,30,32,34,36,-1,-1,38,40,42,44,46,48,50,52,54,56,58,-1,60,-1,-1,-1,62,-1,64,-1,66,68,70,-1,-1,-1,72,74,76,78,80,82,84,86,88,90,92,94,96,-1,-1,-1,-1,-1,-1,-1,-1,-1,-1,-1,-1,-1,-1,-1,-1,-1,-1,-1,-1,-1,-1,-1,-1,-1,-1,-1,-1,-1,-1,-1,-1,-1,-1,-1,-1,-1,-1],"split_conditions":[1.575E2,1.55E1,1.115E1,1.355E1,1.6150002E1,1.95E2,1.195E1,7.5E1,1.275E2,1.565E1,1.625E1,1.685E1,1.035E1,1.72E1,1.205E1,1.035E1,1.35E2,8.25E1,-2.6206685E-2,2.739172E-2,7.5E1,1.1299999E1,1.545E1,1.64E1,1.09E1,1.025E1,2.25E2,1.59E1,4.65E2,2.25E2,3.875E2,7.038689E-2,1.495E1,-3.591278E-2,1.6434431E-2,-5.193329E-3,9.25E1,1.4092083E-1,1.05E2,-1.4958555E-1,3E1,1.445E1,1.6150002E1,5.6595612E-2,1.0848808E-2,-1.916485E-2,1.85E1,1.215E1,1.825E1,1.08E1,1.055E1,5.4E2,1.135E1,1.825E1,1.175E1,1.75E2,3.15E2,3.625E2,1.625E3,-6.115494E-2,7.516324E-3,3.1374265E-2,1.1771324E-1,8.585072E-3,7.2722055E-2,1.16713434E-1,-2.7501106E-3,5.9671454E-2,8.817715E-2,5.610334E-3,6.7723826E-2,-1.3512212E-1,-2.3283578E-2,1.893654E-2,5.414045E-2,1.262641E-1,5.000124E-2,-3.470335E-2,4.834843E-2,3.817761E-2,6.2054347E-2,1.19793065E-1,2.4257757E-2,8.991097E-2,-6.799017E-4,1.6678198E-1,1.034471E-2,2.4128085E-1,3.6844827E-2,1.1770993E-1,1.9504739E-2,-3.027463E-1,2.6186371E-2,7.4545555E-2,1.5109599E-1,3.8440816E-2,9.068486E-2],"split_indices":[0,2,1,1,2,0,1,0,0,2,2,2,1,2,1,1,0,0,0,0,0,1,1,2,1,1,0,2,0,0,0,0,2,0,0,0,0,0,0,0,0,1,1,0,0,0,2,2,2,1,1,0,1,2,1,0,0,0,0,0,0,0,0,0,0,0,0,0,0,0,0,0,0,0,0,0,0,0,0,0,0,0,0,0,0,0,0,0,0,0,0,0,0,0,0,0,0],"split_type":[0,0,0,0,0,0,0,0,0,0,0,0,0,0,0,0,0,0,0,0,0,0,0,0,0,0,0,0,0,0,0,0,0,0,0,0,0,0,0,0,0,0,0,0,0,0,0,0,0,0,0,0,0,0,0,0,0,0,0,0,0,0,0,0,0,0,0,0,0,0,0,0,0,0,0,0,0,0,0,0,0,0,0,0,0,0,0,0,0,0,0,0,0,0,0,0,0],"sum_hessian":[7.23E2,3.44E2,3.79E2,4E1,3.04E2,9.9E1,2.8E2,3.3E1,7E0,1E1,2.94E2,9E0,9E1,6.7E1,2.13E2,2.3E1,1E1,6E0,1E0,1E0,9E0,8E0,2.86E2,6E0,3E0,3.1E1,5.9E1,2.8E1,3.9E1,6E0,2.07E2,1.2E1,1.1E1,7E0,3E0,1E0,5E0,7E0,2E0,2E0,6E0,2.4E2,4.6E1,4E0,2E0,1E0,2E0,1.5E1,1.6E1,6E0,5.3E1,1.1E1,1.7E1,3.3E1,6E0,3E0,3E0,1.48E2,5.9E1,1E0,1E1,1E0,4E0,1E0,1E0,1E0,5E0,1.97E2,4.3E1,2.5E1,2.1E1,1E0,1E0,2E0,1.3E1,1.3E1,3E0,3E0,3E0,1.9E1,3.4E1,1E1,1E0,4E0,1.3E1,2.1E1,1.2E1,5E0,1E0,2E0,1E0,1E0,2E0,1.41E2,7E0,4.6E1,1.3E1],"tree_param":{"num_deleted":"0","num_feature":"3","num_nodes":"97","size_leaf_vector":"0"}},{"base_weights":[1.5475255E-1,1.5187985E-1,3.446762E-1,1.6684473E-1,1.16997324E-1,1.438036E-1,4.102211E-1,1.1588091E-1,1.8271714E-1,-3.227196E-2,1.235796E-1,1.2959291E-1,1.7796278E-2,8.3806716E-2,1.9894356E-1,-2.754302E-1,1.1128589E-1,4.744066E-2,1.3914932E-1,1.020417E-1,1.8033022E-1,3.3068848E-1,-2.5109101E-2,1.9312989E-2,3.132998E-1,1.4392361E-1,2.2852907E-1,1.9440332E-2,1.4413604E-1,-9.313889E-2,9.595333E-2,1.81629E-1,1.1939252E-1,1.17689416E-1,5.991502E-3,3.0794594E-1,1.19403176E-1,-3.0572653E-1,7.0522465E-2,1.7700045E-1,-2.415436E-1,4.6085086E-1,8.89403E-2,2.994869E-1,1.141856E-1,1.8156162E-1,2.5863868E-1,4.7016144E-4,2.8690338E-2,1.645443E-1,-2.9235172E-1,2.0712987E-1,3.238919E-2,2.0892699E-1,2.4958082E-2,-3.541603E-2,1.3214871E-1],"categories":[],"categories_nodes":[],"categories_segments":[],"categories_sizes":[],"default_left":[1,1,1,1,1,0,0,1,1,1,1,1,1,1,1,0,1,1,1,1,1,0,1,1,1,1,1,1,0,1,1,1,1,0,0,0,0,0,0,0,0,0,0,0,0,0,0,0,0,0,0,0,0,0,0,0,0],"id":14,"left_children":[1,3,5,7,9,-1,-1,11,13,15,17,19,21,23,25,-1,27,29,31,33,35,-1,37,39,41,43,45,47,-1,49,51,53,55,-1,-1,-1,-1,-1,-1,-1,-1,-1,-1,-1,-1,-1,-1,-1,-1,-1,-1,-1,-1,-1,-1,-1,-1],"loss_changes":[3.426628E-1,3.537178E-1,7.267034E-2,3.816681E-1,2.1818018E-1,0E0,0E0,1.6043127E-1,5.9000397E-1,3.7972426E-1,2.4115992E-1,1.2977338E-1,2.2309943E-1,8.079969E-1,4.945135E-1,0E0,1.8317938E-2,2.6127288E-1,1.235075E-1,1.0600543E-1,2.4313915E-1,0E0,4.2409888E-1,1.8526411E0,3.5626543E-1,5.0243545E-1,2.4860191E-1,5.129335E-4,0E0,5.614428E-1,1.9116277E-1,2.2145605E-1,2.4362707E-1,0E0,0E0,0E0,0E0,0E0,0E0,0E0,0E0,0E0,0E0,0E0,0E0,0E0,0E0,0E0,0E0,0E0,0E0,0E0,0E0,0E0,0E0,0E0,0E0],"parents":[2147483647,0,0,1,1,2,2,3,3,4,4,7,7,8,8,9,9,10,10,11,11,12,12,13,13,14,14,16,16,17,17,18,18,19,19,20,20,22,22,23,23,24,24,25,25,26,26,27,27,29,29,30,30,31,31,32,32],"right_children":[2,4,6,8,10,-1,-1,12,14,16,18,20,22,24,26,-1,28,30,32,34,36,-1,38,40,42,44,46,48,-1,50,52,54,56,-1,-1,-1,-1,-1,-1,-1,-1,-1,-1,-1,-1,-1,-1,-1,-1,-1,-1,-1,-1,-1,-1,-1,-1],"split_conditions":[1.6349998E1,1.415E1,1.45E2,1.625E1,1.725E1,4.3141082E-2,1.23066336E-1,1.6150002E1,3.5E1,1.5799999E1,1.455E1,1.545E1,1.5E1,1.9349998E1,1.115E1,-8.262906E-2,9.75E1,1.7849998E1,1.525E1,1.525E1,1.5E2,9.9206544E-2,7.5E1,1.825E1,2.5E1,1.645E1,1.775E1,9.25E1,4.3240815E-2,1.435E1,1.9349998E1,2.065E1,1.75E1,3.5306826E-2,1.7974507E-3,9.238379E-2,3.5820954E-2,-9.171796E-2,2.115674E-2,5.3100135E-2,-7.246309E-2,1.3825527E-1,2.6682092E-2,8.9846075E-2,3.4255683E-2,5.4468486E-2,7.7591605E-2,1.4104844E-4,8.607102E-3,4.9363293E-2,-8.770552E-2,6.2138963E-2,9.716758E-3,6.26781E-2,7.4874246E-3,-1.0624809E-2,3.9644614E-2],"split_indices":[1,1,0,2,2,0,0,2,0,1,1,2,0,2,1,0,0,2,1,2,0,0,0,2,0,2,2,0,0,1,2,2,0,0,0,0,0,0,0,0,0,0,0,0,0,0,0,0,0,0,0,0,0,0,0,0,0],"split_type":[0,0,0,0,0,0,0,0,0,0,0,0,0,0,0,0,0,0,0,0,0,0,0,0,0,0,0,0,0,0,0,0,0,0,0,0,0,0,0,0,0,0,0,0,0,0,0,0,0,0,0,0,0,0,0,0,0],"sum_hessian":[7.23E2,7.14E2,9E0,4.97E2,2.17E2,3E0,6E0,1.2E2,3.77E2,9E0,2.08E2,1.05E2,1.5E1,5.4E1,3.23E2,3E0,6E0,3.6E1,1.72E2,7E1,3.5E1,1E0,1.4E1,4.3E1,1.1E1,1.15E2,2.08E2,2E0,4E0,9E0,2.7E1,5.2E1,1.2E2,6E1,1E1,1E1,2.5E1,3E0,1.1E1,2.7E1,1.6E1,6E0,5E0,1.7E1,9.8E1,8.4E1,1.24E2,1E0,1E0,4E0,5E0,9E0,1.8E1,4.4E1,8E0,9E0,1.11E2],"tree_param":{"num_deleted":"0","num_feature":"3","num_nodes":"57","size_leaf_vector":"0"}},{"base_weights":[1.0952034E-1,1.07292E-1,2.5789452E-1,9.5540084E-2,1.3626106E-1,3.2533646E-2,2.7931976E-1,6.690785E-2,1.17931604E-1,1.6669075E-1,8.055092E-2,1.2565072E-1,4.7393274E-2,1.9028783E-1,7.800736E-2,1.4346078E-1,3.0455336E-1,2.9240778E-2,2.2754127E-1,7.537966E-2,3.244523E-1,-1.2209381E-2,1.03114955E-1,-2.198391E-1,2.05086E-1,1.0839643E-1,-1.4173021E-2,1.5687358E-1,-1.2411531E-1,3.8926533E-1,-8.9254856E-2,-6.9906026E-2,1.17498204E-1,3.8656235E-2,2.3588732E-1,1.1008434E-1,-1.3370132E-1,4.0832195E-1,-2.5712204E-1,7.786457E-2,-2.544866E-1,4.598306E-1,7.640771E-2,3.2329315E-1,1.342837E-1,-8.38503E-2,1.469052E-1,1.6561928E-1,-6.111381E-2,1.2148442E-1,2.4199842E-1,-5.55865E-2,-1.4448309E-1,1.4119275E-1,4.1656935E-1,2.3830414E-2,-1.3489342E-1,4.03924E-1,-1.0366579E-1,7.297819E-2,1.631655E-1],"categories":[],"categories_nodes":[],"categories_segments":[],"categories_sizes":[],"default_left":[1,1,1,1,1,0,0,1,1,1,1,1,1,1,1,1,1,1,1,1,1,1,1,0,1,1,1,1,1,1,1,1,1,0,0,0,0,0,0,0,0,0,0,0,0,0,0,0,0,0,0,0,0,0,0,0,0,0,0,0,0],"id":15,"left_children":[1,3,5,7,9,-1,-1,11,13,15,17,19,21,23,25,27,29,31,33,35,37,39,41,-1,43,45,47,49,51,53,55,57,59,-1,-1,-1,-1,-1,-1,-1,-1,-1,-1,-1,-1,-1,-1,-1,-1,-1,-1,-1,-1,-1,-1,-1,-1,-1,-1,-1,-1],"loss_changes":[2.1170425E-1,2.3039722E-1,3.919685E-2,3.2036257E-1,3.324027E-1,0E0,0E0,2.542647E-1,8.1134367E-1,3.758421E-1,5.5146164E-1,5.352049E-1,5.7249856E-1,6.5806746E-1,5.225737E-1,4.2861032E-1,6.3522863E-1,4.9823856E-1,2.083391E-2,3.484985E-1,6.415293E-1,1.8529363E0,8.1275886E-1,0E0,7.7678204E-1,1.048764E0,4.0678245E-1,2.9896307E-1,3.4336E-4,4.2783976E-2,2.3858763E-2,4.7377563E-1,4.9085706E-2,0E0,0E0,0E0,0E0,0E0,0E0,0E0,0E0,0E0,0E0,0E0,0E0,0E0,0E0,0E0,0E0,0E0,0E0,0E0,0E0,0E0,0E0,0E0,0E0,0E0,0E0,0E0,0E0],"parents":[2147483647,0,0,1,1,2,2,3,3,4,4,7,7,8,8,9,9,10,10,11,11,12,12,13,13,14,14,15,15,16,16,17,17,18,18,19,19,20,20,21,21,22,22,24,24,25,25,26,26,27,27,28,28,29,29,30,30,31,31,32,32],"right_children":[2,4,6,8,10,-1,-1,12,14,16,18,20,22,24,26,28,30,32,34,36,38,40,42,-1,44,46,48,50,52,54,56,58,60,-1,-1,-1,-1,-1,-1,-1,-1,-1,-1,-1,-1,-1,-1,-1,-1,-1,-1,-1,-1,-1,-1,-1,-1,-1,-1,-1,-1],"split_conditions":[1.6349998E1,2.725E2,1.225E2,1.7650002E1,1.385E1,9.760094E-3,8.3795935E-2,1.055E1,1.825E1,1.33E1,1.545E1,1.6849998E1,1.2549999E1,1.1E1,1.475E2,1.24E1,5.225E2,7.25E2,2.775E2,1.655E1,1.75E1,1.695E1,1.335E1,-6.5951735E-2,1.225E1,1.8650002E1,1.8650002E1,1.165E1,3.45E2,2.9E2,6.75E2,2.9E2,1.625E3,1.1596871E-2,7.0766196E-2,3.3025302E-2,-4.0110398E-2,1.2249659E-1,-7.713661E-2,2.3359373E-2,-7.634598E-2,1.3794918E-1,2.2922313E-2,9.698795E-2,4.0285114E-2,-2.5155092E-2,4.4071563E-2,4.9685787E-2,-1.8334143E-2,3.6445327E-2,7.259953E-2,-1.6675951E-2,-4.334493E-2,4.2357825E-2,1.2497081E-1,7.1491245E-3,-4.0468026E-2,1.21177204E-1,-3.1099739E-2,2.1893458E-2,4.894965E-2],"split_indices":[1,0,0,2,1,0,0,1,2,1,1,2,1,1,0,1,0,0,0,2,2,2,1,0,1,2,2,1,0,0,0,0,0,0,0,0,0,0,0,0,0,0,0,0,0,0,0,0,0,0,0,0,0,0,0,0,0,0,0,0,0],"split_type":[0,0,0,0,0,0,0,0,0,0,0,0,0,0,0,0,0,0,0,0,0,0,0,0,0,0,0,0,0,0,0,0,0,0,0,0,0,0,0,0,0,0,0,0,0,0,0,0,0,0,0,0,0,0,0,0,0,0,0,0,0],"sum_hessian":[7.23E2,7.14E2,9E0,5.11E2,2.03E2,1E0,8E0,2.26E2,2.85E2,1.3E2,7.3E1,5.5E1,1.71E2,1E2,1.85E2,1.13E2,1.7E1,5.5E1,1.8E1,4.5E1,1E1,8.3E1,8.8E1,3E0,9.7E1,1.39E2,4.6E1,1.08E2,5E0,1.4E1,3E0,2.6E1,2.9E1,1E0,1.7E1,3.9E1,6E0,9E0,1E0,6.1E1,2.2E1,5E0,8.3E1,3.5E1,6.2E1,2.3E1,1.16E2,9E0,3.7E1,7.8E1,3E1,2E0,3E0,2E0,1.2E1,1E0,2E0,1E0,2.5E1,1.6E1,1.3E1],"tree_param":{"num_deleted":"0","num_feature":"3","num_nodes":"61","size_leaf_vector":"0"}},{"base_weights":[7.775203E-2,1.879468E-2,8.1081286E-2,1.0657413E-1,-2.2631304E-2,1.5702216E-1,7.600272E-2,-1.4807606E-1,2.6234854E-2,-5.5070877E-2,1.8717179E-1,4.2101383E-2,8.267933E-2,4.4939645E-2,-1.0097376E-1,-1.7960231E-1,5.2095413E-2,2.9377377E-1,1.0951084E-1,2.3731756E-1,8.063101E-3,1.8245814E-2,9.1359034E-2,2.8458953E-2,9.9627495E-2,1.0588074E-1,-5.463028E-2,9.5660016E-2,3.571188E-1,-2.1855354E-1,1.3435711E-1,1.5701364E-1,3.449885E-1,-2.0720145E-1,4.2512186E-2,1.1458955E-1,-4.8921537E-2,1.0658292E-1,4.8587043E-2,4.2913754E-2,-1.1924362E-2,-3.194809E-4,1.3304965E-1,3.1160355E-2,1.2766075E-1,3.767418E-1,8.0444336E-2,2.2327884E-1,2.5137294E-2,2.3946023E-1,-4.713297E-2,-3.8679802E-1,1.5751266E-1,3.5842085E-1,2.5766715E-2,5.5946533E-2,2.7414867E-1,-1.667478E-1,2.3731079E-2,8.1500076E-2,1.6231625E-1,1.3307048E-1,1.5918482E-2],"categories":[],"categories_nodes":[],"categories_segments":[],"categories_sizes":[],"default_left":[1,1,1,0,1,1,1,0,1,1,1,1,1,1,0,0,1,1,1,1,1,1,1,1,1,1,0,0,1,0,1,1,0,1,1,1,1,1,1,0,0,0,0,0,0,0,0,0,0,0,0,0,0,0,0,0,0,0,0,0,0,0,0],"id":16,"left_children":[1,3,5,-1,7,9,11,-1,13,15,17,19,21,23,-1,-1,25,27,29,31,33,35,37,39,41,43,-1,-1,45,-1,47,49,-1,51,53,55,57,59,61,-1,-1,-1,-1,-1,-1,-1,-1,-1,-1,-1,-1,-1,-1,-1,-1,-1,-1,-1,-1,-1,-1,-1,-1],"loss_changes":[1.4058638E-1,1.4786592E-1,2.522502E-1,0E0,1.7552485E-1,2.7887785E-1,1.4228606E-1,0E0,5.450535E-2,8.9429885E-2,2.7414465E-1,7.157273E-1,2.9865766E-1,1.4289282E-2,0E0,0E0,2.87454E-2,1.5408075E-1,2.1684128E-1,8.4174514E-2,6.9846565E-1,4.2623088E-1,3.028183E-1,9.8514445E-3,1.340428E-2,9.0427697E-4,0E0,0E0,2.9414177E-2,0E0,2.0805171E-1,1.9642961E-1,0E0,9.124437E-1,4.192579E-1,2.373021E-1,3.3781213E-1,4.7325778E-1,3.4563568E-1,0E0,0E0,0E0,0E0,0E0,0E0,0E0,0E0,0E0,0E0,0E0,0E0,0E0,0E0,0E0,0E0,0E0,0E0,0E0,0E0,0E0,0E0,0E0,0E0],"parents":[2147483647,0,0,1,1,2,2,4,4,5,5,6,6,8,8,9,9,10,10,11,11,12,12,13,13,16,16,17,17,18,18,19,19,20,20,21,21,22,22,23,23,24,24,25,25,28,28,30,30,31,31,33,33,34,34,35,35,36,36,37,37,38,38],"right_children":[2,4,6,-1,8,10,12,-1,14,16,18,20,22,24,-1,-1,26,28,30,32,34,36,38,40,42,44,-1,-1,46,-1,48,50,-1,52,54,56,58,60,62,-1,-1,-1,-1,-1,-1,-1,-1,-1,-1,-1,-1,-1,-1,-1,-1,-1,-1,-1,-1,-1,-1,-1,-1],"split_conditions":[1.325E1,7.5E1,1.035E1,3.197224E-2,1.35E2,1.675E1,4.75E1,-4.442282E-2,2.425E2,1.65E2,1.7400002E1,1.115E1,1.095E1,1.355E1,-3.029213E-2,-5.3880695E-2,3.3E2,1.695E1,1.8E1,1.9E1,1.15E1,1.645E1,1.955E1,2.125E2,2.3E2,1.95E2,-1.6389085E-2,2.8698007E-2,4.8E2,-6.556606E-2,2.85E2,1.81E1,1.0349655E-1,1.865E1,1.165E1,1.6349998E1,2.25E2,1.795E1,9.5E1,1.2874126E-2,-3.5773087E-3,-9.5844276E-5,3.99149E-2,9.348107E-3,3.8298227E-2,1.1302254E-1,2.4133302E-2,6.6983655E-2,7.5411885E-3,7.183807E-2,-1.4139892E-2,-1.1603941E-1,4.7253802E-2,1.0752626E-1,7.730015E-3,1.678396E-2,8.2244605E-2,-5.002434E-2,7.119324E-3,2.4450025E-2,4.8694875E-2,3.9921146E-2,4.7755446E-3],"split_indices":[2,0,1,0,0,2,0,0,0,0,2,1,1,1,0,0,0,2,2,2,1,2,2,0,0,0,0,0,0,0,0,2,0,2,1,2,0,2,0,0,0,0,0,0,0,0,0,0,0,0,0,0,0,0,0,0,0,0,0,0,0,0,0],"split_type":[0,0,0,0,0,0,0,0,0,0,0,0,0,0,0,0,0,0,0,0,0,0,0,0,0,0,0,0,0,0,0,0,0,0,0,0,0,0,0,0,0,0,0,0,0,0,0,0,0,0,0,0,0,0,0,0,0,0,0,0,0,0,0],"sum_hessian":[7.23E2,3.9E1,6.84E2,1.2E1,2.7E1,4.1E1,6.43E2,7E0,2E1,5E0,3.6E1,1.07E2,5.36E2,1.8E1,2E0,2E0,3E0,1.4E1,2.2E1,1.5E1,9.2E1,6.4E1,4.72E2,1.5E1,3E0,2E0,1E0,4E0,1E1,1E0,2.1E1,1E1,5E0,1.2E1,8E1,2.6E1,3.8E1,3.47E2,1.25E2,1.1E1,4E0,1E0,2E0,1E0,1E0,9E0,1E0,1.1E1,1E1,7E0,3E0,8E0,4E0,3E0,7.7E1,2E1,6E0,1.4E1,2.4E1,2.41E2,1.06E2,3.4E1,9.1E1],"tree_param":{"num_deleted":"0","num_feature":"3","num_nodes":"63","size_leaf_vector":"0"}},{"base_weights":[5.5172306E-2,5.3518854E-2,1.6787681E-1,4.5707658E-2,7.718094E-2,4.8772812E-2,2.1195385E-1,5.3966895E-2,9.712444E-3,6.745312E-2,1.7709592E-1,4.8130866E-2,1.804406E-1,8.2708776E-2,-7.4131526E-2,9.706589E-2,-9.332657E-3,5.08852E-2,1.8247631E-1,1.7256737E-2,6.856406E-2,2.788461E-1,8.352332E-2,3.1128415E-1,2.499682E-2,-2.1528448E-1,-9.677831E-3,1.09061226E-1,-1.698176E-2,-1.2720346E-1,5.180494E-2,3.978142E-2,-6.417677E-2,5.2644208E-2,2.8647232E-1,3.4035546E-1,4.2375565E-2,1.1452566E-1,2.3415376E-2,1.2874663E-1,-4.8938114E-2,-3.2578737E-1,4.767736E-3,-5.1088165E-2,7.049847E-2,8.577146E-2,2.2594464E-1,1.6977945E-2,-8.914566E-2,-2.0359594E-1,3.4049988E-2,-6.449318E-2,5.783132E-2],"categories":[],"categories_nodes":[],"categories_segments":[],"categories_sizes":[],"default_left":[1,1,1,1,1,0,0,1,1,1,1,1,1,1,1,1,1,0,0,1,1,1,1,0,1,1,1,1,1,1,1,0,0,0,0,0,0,0,0,0,0,0,0,0,0,0,0,0,0,0,0,0,0],"id":17,"left_children":[1,3,5,7,9,-1,-1,11,13,15,17,19,21,23,25,27,29,-1,-1,31,33,35,37,-1,39,41,43,45,47,49,51,-1,-1,-1,-1,-1,-1,-1,-1,-1,-1,-1,-1,-1,-1,-1,-1,-1,-1,-1,-1,-1,-1],"loss_changes":[1.2593389E-1,1.2862515E-1,4.2159915E-2,1.6001415E-1,1.591183E-1,0E0,0E0,3.153429E-1,6.304022E-1,3.692677E-1,9.005964E-4,2.6440758E-1,1.5791655E-1,7.1775323E-1,4.3461233E-1,1.619128E-1,3.3808133E-1,0E0,0E0,3.1254363E-1,8.625927E-1,1.1648363E-1,1.7816693E-2,0E0,3.5148373E-1,3.662992E-1,1.16485976E-1,2.691722E-1,3.0921487E-2,2.0402923E-1,2.5456257E-2,0E0,0E0,0E0,0E0,0E0,0E0,0E0,0E0,0E0,0E0,0E0,0E0,0E0,0E0,0E0,0E0,0E0,0E0,0E0,0E0,0E0,0E0],"parents":[2147483647,0,0,1,1,2,2,3,3,4,4,7,7,8,8,9,9,10,10,11,11,12,12,13,13,14,14,15,15,16,16,19,19,20,20,21,21,22,22,24,24,25,25,26,26,27,27,28,28,29,29,30,30],"right_children":[2,4,6,8,10,-1,-1,12,14,16,18,20,22,24,26,28,30,-1,-1,32,34,36,38,-1,40,42,44,46,48,50,52,-1,-1,-1,-1,-1,-1,-1,-1,-1,-1,-1,-1,-1,-1,-1,-1,-1,-1,-1,-1,-1,-1],"split_conditions":[1.6349998E1,3.025E2,1.45E2,1.955E1,1.545E1,1.4631844E-2,6.358616E-2,1.9349998E1,1.025E2,1.46E1,3.1E2,1.025E2,1.15E2,1.15E1,1.3299999E1,6.45E2,6.75E2,1.5265561E-2,5.4742895E-2,1.825E1,1.535E1,1.2450001E1,1.1799999E1,9.338525E-2,2.105E1,2.005E1,2.275E2,1.33E1,1.2950001E1,1.995E1,1.515E1,1.1934427E-2,-1.925303E-2,1.5793264E-2,8.59417E-2,1.0210664E-1,1.271267E-2,3.43577E-2,7.0246127E-3,3.862399E-2,-1.4681435E-2,-9.773622E-2,1.4303208E-3,-1.5326451E-2,2.114954E-2,2.5731439E-2,6.778339E-2,5.0933836E-3,-2.6743699E-2,-6.1078783E-2,1.02149965E-2,-1.9347955E-2,1.7349398E-2],"split_indices":[1,0,0,2,1,0,0,2,0,1,0,0,0,1,1,0,0,0,0,2,1,1,1,0,2,2,0,1,1,2,1,0,0,0,0,0,0,0,0,0,0,0,0,0,0,0,0,0,0,0,0,0,0],"split_type":[0,0,0,0,0,0,0,0,0,0,0,0,0,0,0,0,0,0,0,0,0,0,0,0,0,0,0,0,0,0,0,0,0,0,0,0,0,0,0,0,0,0,0,0,0,0,0,0,0,0,0,0,0],"sum_hessian":[7.23E2,7.14E2,9E0,5.39E2,1.75E2,3E0,6E0,4.38E2,1.01E2,1.61E2,1.4E1,4.2E2,1.8E1,5.4E1,4.7E1,1.16E2,4.5E1,1E0,1.3E1,1.68E2,2.52E2,8E0,1E1,1E1,4.4E1,1.4E1,3.3E1,1.05E2,1.1E1,1.5E1,3E1,1.32E2,3.6E1,2.36E2,1.6E1,6E0,2E0,6E0,4E0,1.8E1,2.6E1,9E0,5E0,2.2E1,1.1E1,8.9E1,1.6E1,8E0,3E0,1E1,5E0,1E0,2.9E1],"tree_param":{"num_deleted":"0","num_feature":"3","num_nodes":"53","size_leaf_vector":"0"}},{"base_weights":[3.9234906E-2,1.7881814E-2,4.418804E-2,1.8124621E-3,1.0252874E-1,1.6447131E-1,4.096215E-2,3.75796E-2,-1.031649E-1,1.2387467E-2,1.6398136E-1,2.780052E-1,-5.216376E-2,1.03882596E-1,3.61723E-2,-4.4027055E-3,1.9027339E-1,-1.1767041E-2,-3.1511912E-1,6.784916E-2,-2.1074567E-2,2.2097167E-1,1.1409993E-1,4.333674E-1,3.5969544E-2,-3.711481E-1,8.586273E-2,-1.0539818E-1,1.2369991E-1,-3.9466947E-2,4.2709526E-2,2.3392258E-2,-1.1725344E-1,2.6887083E-1,4.8593044E-2,-5.905075E-2,2.5510201E-2,1.098959E-1,-6.771103E-1,-8.1682205E-3,9.5911026E-2,-5.4976463E-2,1.809597E-2,-7.169024E-2,1.774243E-1,1.1123403E-1,-5.128479E-2,-1.2921047E-1,1.7193365E-1,-1.5292422E-1,1.8589973E-2,1.5296954E-1,-2.3594175E-2,-7.061208E-2,3.7838127E-2,8.954785E-2,3.446689E-2,-7.992836E-3,1.04316115E-1,-2.7187997E-1,-2.8214836E-2,9.538269E-2,2.940302E-1,7.109356E-2,-1.2605667E-2,-6.1735153E-2,-1.7445564E-2,1.0399704E-1,-2.0928064E-2,6.066332E-1,-1.6594672E-1,-1.7273712E-1,-7.600193E-1,-6.486765E-2,-1.26514435E-2,-1.26514435E-2,3.2562256E-2,-1.23488426E-1,1.5953064E-2,1.9824053E-1,1.0402635E-1,-1.22464495E-2,-4.5840263E-2,-4.445267E-3,-1.7500575E-1,9.33129E-2,-8.497715E-3,2.300082E-1,5.814568E-2,-8.759469E-2,4.441934E-2],"categories":[],"categories_nodes":[],"categories_segments":[],"categories_sizes":[],"default_left":[1,1,1,1,1,1,1,1,1,1,1,1,1,1,1,1,1,1,1,1,1,0,1,0,1,0,1,1,1,1,1,1,1,1,1,1,1,1,1,0,0,1,1,1,0,0,0,0,0,0,0,1,1,1,1,1,1,0,0,0,0,0,0,0,0,0,0,0,0,0,0,0,0,0,0,0,0,0,0,0,0,0,0,0,0,0,0,0,0,0,0],"id":18,"left_children":[1,3,5,7,9,11,13,15,17,19,21,23,25,27,29,31,33,35,37,39,41,-1,43,-1,45,-1,47,49,51,53,55,57,59,61,63,65,67,69,71,-1,-1,73,75,77,-1,-1,-1,-1,-1,-1,-1,79,81,83,85,87,89,-1,-1,-1,-1,-1,-1,-1,-1,-1,-1,-1,-1,-1,-1,-1,-1,-1,-1,-1,-1,-1,-1,-1,-1,-1,-1,-1,-1,-1,-1,-1,-1,-1,-1],"loss_changes":[7.578349E-2,1.8752474E-1,2.2103119E-1,4.4318143E-1,1.1983587E-1,3.834332E-1,1.6893286E-1,5.649562E-1,5.7745683E-1,1.9988501E-2,1.1743009E-2,3.6044383E-1,2.9603755E-1,1.7893302E-1,2.6573306E-1,2.2231059E-1,1.9851333E-1,4.0283736E-2,1.4590768E0,9.31618E-3,1.0290542E-2,0E0,1.1860499E-1,0E0,3.8540374E-2,0E0,1.1477336E-1,2.6413526E-2,1.6312522E-1,1.0620193E-1,1.8686062E-1,1.4560255E-1,1.8507715E-1,2.4332762E-2,1.1912202E-2,3.984198E-5,4.9558762E-2,7.8577536E-1,7.7801704E-2,0E0,0E0,8.539092E-4,2.191163E-3,1.5589311E-2,0E0,0E0,0E0,0E0,0E0,0E0,0E0,4.806465E-2,1.2057172E-3,2.1335132E-1,3.4209058E-2,3.086115E-1,5.141119E-1,0E0,0E0,0E0,0E0,0E0,0E0,0E0,0E0,0E0,0E0,0E0,0E0,0E0,0E0,0E0,0E0,0E0,0E0,0E0,0E0,0E0,0E0,0E0,0E0,0E0,0E0,0E0,0E0,0E0,0E0,0E0,0E0,0E0,0E0],"parents":[2147483647,0,0,1,1,2,2,3,3,4,4,5,5,6,6,7,7,8,8,9,9,10,10,11,11,12,12,13,13,14,14,15,15,16,16,17,17,18,18,19,19,20,20,22,22,24,24,26,26,27,27,28,28,29,29,30,30,31,31,32,32,33,33,34,34,35,35,36,36,37,37,38,38,41,41,42,42,43,43,51,51,52,52,53,53,54,54,55,55,56,56],"right_children":[2,4,6,8,10,12,14,16,18,20,22,24,26,28,30,32,34,36,38,40,42,-1,44,-1,46,-1,48,50,52,54,56,58,60,62,64,66,68,70,72,-1,-1,74,76,78,-1,-1,-1,-1,-1,-1,-1,80,82,84,86,88,90,-1,-1,-1,-1,-1,-1,-1,-1,-1,-1,-1,-1,-1,-1,-1,-1,-1,-1,-1,-1,-1,-1,-1,-1,-1,-1,-1,-1,-1,-1,-1,-1,-1,-1],"split_conditions":[1.6349998E1,1.355E1,1.645E1,1.195E1,1.45E1,1.115E1,1.035E1,1.155E1,1.56E1,1.28E1,1.275E2,1.8E2,1.14E1,1.675E1,1.095E1,1.105E1,2.85E2,1.125E2,9E1,2.3E2,1.365E1,6.62915E-2,2.725E2,1.3001023E-1,2.55E2,-1.11344434E-1,1.5E1,1.65E2,1.9650002E1,3.45E2,1.135E1,1.055E1,1.1299999E1,1.505E1,4.65E2,5.25E1,1.925E2,1.215E1,1.35E2,-2.4504662E-3,2.877331E-2,2.475E2,1.4200001E1,2E2,5.322729E-2,3.337021E-2,-1.5385438E-2,-3.8763143E-2,5.1580098E-2,-4.587727E-2,5.5769924E-3,1.7400002E1,5.55E2,1.755E1,1.055E1,1.695E1,1.165E1,-2.3978509E-3,3.1294838E-2,-8.1563994E-2,-8.464451E-3,2.8614808E-2,8.820906E-2,2.132807E-2,-3.7817003E-3,-1.8520547E-2,-5.2336697E-3,3.1199113E-2,-6.2784194E-3,1.8198997E-1,-4.978402E-2,-5.182114E-2,-2.280058E-1,-1.9460296E-2,-3.795433E-3,-3.795433E-3,9.768677E-3,-3.704653E-2,4.7859196E-3,5.9472162E-2,3.1207906E-2,-3.673935E-3,-1.375208E-2,-1.3335801E-3,-5.2501727E-2,2.799387E-2,-2.5493146E-3,6.9002464E-2,1.7443705E-2,-2.6278408E-2,1.3325803E-2],"split_indices":[2,1,2,1,2,1,1,1,2,2,0,0,1,2,1,1,0,0,0,0,1,0,0,0,0,0,0,0,2,0,1,1,1,2,0,0,0,1,0,0,0,0,2,0,0,0,0,0,0,0,0,2,0,2,1,2,1,0,0,0,0,0,0,0,0,0,0,0,0,0,0,0,0,0,0,0,0,0,0,0,0,0,0,0,0,0,0,0,0,0,0],"split_type":[0,0,0,0,0,0,0,0,0,0,0,0,0,0,0,0,0,0,0,0,0,0,0,0,0,0,0,0,0,0,0,0,0,0,0,0,0,0,0,0,0,0,0,0,0,0,0,0,0,0,0,0,0,0,0,0,0,0,0,0,0,0,0,0,0,0,0,0,0,0,0,0,0,0,0,0,0,0,0,0,0,0,0,0,0,0,0,0,0,0,0],"sum_hessian":[7.23E2,1.37E2,5.86E2,1.16E2,2.1E1,1.4E1,5.72E2,8.7E1,2.9E1,9E0,1.2E1,9E0,5E0,3.9E1,5.33E2,6.9E1,1.8E1,2.1E1,8E0,3E0,6E0,4E0,8E0,5E0,4E0,1E0,4E0,3E0,3.6E1,4.2E1,4.91E2,5.6E1,1.3E1,1.1E1,7E0,9E0,1.2E1,4E0,4E0,1E0,2E0,3E0,3E0,2E0,6E0,2E0,2E0,1E0,3E0,2E0,1E0,3E1,6E0,3E1,1.2E1,7.2E1,4.19E2,4.1E1,1.5E1,4E0,9E0,2E0,9E0,5E0,2E0,8E0,1E0,4E0,8E0,1E0,3E0,1E0,3E0,2E0,1E0,1E0,2E0,1E0,1E0,1.4E1,1.6E1,5E0,1E0,1.9E1,1.1E1,5E0,7E0,1.2E1,6E1,3.1E1,3.88E2],"tree_param":{"num_deleted":"0","num_feature":"3","num_nodes":"91","size_leaf_vector":"0"}},{"base_weights":[2.7671844E-2,2.6434954E-2,1.13342285E-1,3.407357E-2,9.206228E-3,2.7804375E-2,1.4602934E-1,2.0465642E-2,5.259702E-2,-1.1194134E-1,1.487731E-2,1.449585E-3,3.610611E-2,9.226497E-3,1.09739244E-1,-1.8693434E-2,6.854866E-2,-2.64719E-1,-8.648192E-3,-4.5742653E-2,2.8807491E-2,2.6307434E-2,-3.8384143E-2,1.5416886E-1,-7.096209E-2,1.1012411E-1,-7.323333E-2,7.9627514E-2,-4.375446E-2,-8.048248E-2,-2.9930368E-1,-3.18985E-2,7.0316317E-3,-1.4262944E-1,-8.692741E-3,5.6452706E-2,2.6852079E-3,1.5068731E-2,1.154995E-1,-4.511919E-1,-1.2390063E-2,5.863571E-2,2.0129608E-1,-3.0184556E-2,-1.15270615E-1,1.3272934E-1,-1.9346873E-3,8.3422065E-2,-2.6040664E-1,4.5552056E-2,1.2540387E-1,-7.183266E-2,-6.697178E-3,2.2884369E-2,-2.818966E-2,3.5345715E-2,-2.9683304E-1,-3.5434503E-2,1.3210297E-1,1.3927345E-1,-1.842024E-2,-5.38949E-1,1.4826592E-2],"categories":[],"categories_nodes":[],"categories_segments":[],"categories_sizes":[],"default_left":[1,1,1,1,1,1,0,1,1,1,1,0,0,1,1,1,1,1,1,1,1,1,1,1,1,1,1,1,1,0,0,0,1,1,1,1,1,0,0,0,0,0,0,0,0,0,0,0,0,0,0,0,0,0,0,0,0,0,0,0,0,0,0],"id":19,"left_children":[1,3,5,7,9,11,-1,13,15,17,19,-1,-1,21,23,25,27,29,31,33,35,37,39,41,43,45,47,49,51,-1,-1,-1,53,55,57,59,61,-1,-1,-1,-1,-1,-1,-1,-1,-1,-1,-1,-1,-1,-1,-1,-1,-1,-1,-1,-1,-1,-1,-1,-1,-1,-1],"loss_changes":[7.372236E-2,9.378284E-2,2.389957E-2,1.2369609E-1,1.5350075E-1,8.2282326E-4,0E0,2.8695148E-1,2.3895615E-1,1.5551952E-1,1.803405E-1,0E0,0E0,2.0919779E-1,2.678519E-1,2.8206688E-1,2.1624053E-1,1.3983548E-3,2.7762232E-3,1.4234605E-1,1.247814E-1,1.8771376E-1,7.2408766E-1,1.0525435E-1,9.1681555E-3,3.0654177E-2,8.427315E-1,2.3762417E-1,1.616695E-2,0E0,0E0,0E0,3.4368718E-3,3.1238028E-1,1.1763476E-1,5.234523E-1,5.9984785E-1,0E0,0E0,0E0,0E0,0E0,0E0,0E0,0E0,0E0,0E0,0E0,0E0,0E0,0E0,0E0,0E0,0E0,0E0,0E0,0E0,0E0,0E0,0E0,0E0,0E0,0E0],"parents":[2147483647,0,0,1,1,2,2,3,3,4,4,5,5,7,7,8,8,9,9,10,10,13,13,14,14,15,15,16,16,17,17,18,18,19,19,20,20,21,21,22,22,23,23,24,24,25,25,26,26,27,27,28,28,32,32,33,33,34,34,35,35,36,36],"right_children":[2,4,6,8,10,12,-1,14,16,18,20,-1,-1,22,24,26,28,30,32,34,36,38,40,42,44,46,48,50,52,-1,-1,-1,54,56,58,60,62,-1,-1,-1,-1,-1,-1,-1,-1,-1,-1,-1,-1,-1,-1,-1,-1,-1,-1,-1,-1,-1,-1,-1,-1,-1,-1],"split_conditions":[1.6349998E1,1.405E1,1.45E2,1.775E1,1.725E1,1.225E2,4.3808803E-2,1.365E1,3.5E1,1.5799999E1,1.455E1,4.3487552E-4,1.0831833E-2,1.195E1,4.4E2,1.825E1,1.285E1,5E1,9.75E1,1.7849998E1,1.925E2,1.175E1,1.205E1,1.595E1,6.75E2,1.3200001E1,1.125E1,1.165E1,1.925E1,-2.4144746E-2,-8.9791104E-2,-9.56955E-3,1.25E2,1.435E1,1.435E1,1.545E1,1.74E1,4.5206198E-3,3.464985E-2,-1.3535757E-1,-3.717019E-3,1.7590715E-2,6.0388826E-2,-9.055367E-3,-3.4581184E-2,3.98188E-2,-5.804062E-4,2.5026621E-2,-7.8122E-2,1.3665617E-2,3.7621163E-2,-2.1549799E-2,-2.0091534E-3,6.865311E-3,-8.456898E-3,1.0603715E-2,-8.904991E-2,-1.06303515E-2,3.963089E-2,4.1782036E-2,-5.5260723E-3,-1.616847E-1,4.447978E-3],"split_indices":[1,1,0,2,2,0,0,1,0,1,1,0,0,1,0,2,1,0,0,2,0,1,1,2,0,1,1,1,2,0,0,0,0,1,1,1,2,0,0,0,0,0,0,0,0,0,0,0,0,0,0,0,0,0,0,0,0,0,0,0,0,0,0],"split_type":[0,0,0,0,0,0,0,0,0,0,0,0,0,0,0,0,0,0,0,0,0,0,0,0,0,0,0,0,0,0,0,0,0,0,0,0,0,0,0,0,0,0,0,0,0,0,0,0,0,0,0,0,0,0,0,0,0,0,0,0,0,0,0],"sum_hessian":[7.23E2,7.14E2,9E0,4.94E2,2.2E2,3E0,6E0,2.86E2,2.08E2,9E0,2.11E2,1E0,2E0,2.55E2,3.1E1,3.8E1,1.7E2,3E0,6E0,3.9E1,1.72E2,1.88E2,6.7E1,2.5E1,6E0,1.1E1,2.7E1,1.55E2,1.5E1,1E0,2E0,2E0,4E0,1E1,2.9E1,8.3E1,8.9E1,1.68E2,2E1,3E0,6.4E1,9E0,1.6E1,4E0,2E0,9E0,2E0,1.5E1,1.2E1,9E1,6.5E1,8E0,7E0,3E0,1E0,5E0,5E0,2.5E1,4E0,3.9E1,4.4E1,1E0,8.8E1],"tree_param":{"num_deleted":"0","num_feature":"3","num_nodes":"63","size_leaf_vector":"0"}},{"base_weights":[1.8966768E-2,2.1944877E-2,-1.9151255E-2,2.0323085E-2,1.5401316E-1,3.683096E-2,-9.970942E-2,1.6674466E-2,4.7176458E-2,2.6107025E-1,3.756485E-2,1.5596342E-1,-2.7646637E-3,-1.2652859E-1,5.2608967E-2,2.3099426E-2,-3.1894077E-2,1.02550626E-1,7.2929705E-3,1.2868246E-3,6.132126E-2,5.758222E-2,1.7916012E-1,-1.5348005E-1,2.47638E-2,-2.7274132E-2,-1.4343417E-1,2.7370453E-3,6.8320595E-2,1.9920785E-2,8.7828875E-2,-9.236373E-2,5.46973E-2,4.229307E-3,1.8425009E-1,-3.1338476E-2,7.730955E-2,3.2844543E-3,-1.3542175E-3,1.0412598E-1,-1.7752647E-2,-2.0898247E-1,6.5135956E-3,2.6037407E-1,-1.181593E-2,-1.7788982E-1,8.222771E-2,-6.483241E-2,-1.8411198E-1,2.2946043E-2,-6.169139E-2,1.4588752E-1,1.7612934E-2,-2.2590344E-3,-2.3301113E-1,1.2755832E-1,1.5531922E-2,-4.3922424E-2,1.8719893E-2,2.3252974E-1,1.2237339E-1,4.1334696E-2,-5.0433427E-2,1.2185631E-1,5.4229297E-2,1.5586725E-2,-7.835325E-2,-6.635189E-3,-1.0682154E-1,-2.04294E-1,-1.2369156E-3],"categories":[],"categories_nodes":[],"categories_segments":[],"categories_sizes":[],"default_left":[1,1,1,1,1,1,1,1,1,0,1,1,1,1,1,1,1,1,1,1,0,1,0,1,1,1,1,0,0,1,1,1,1,1,1,1,1,0,0,0,0,0,0,0,1,0,0,1,1,0,0,0,0,0,0,0,0,0,0,0,0,0,0,0,0,0,0,0,0,0,0],"id":20,"left_children":[1,3,5,7,9,11,13,15,17,-1,19,21,23,25,27,29,31,33,35,37,-1,39,-1,41,43,45,47,-1,-1,49,51,53,55,57,59,61,63,-1,-1,-1,-1,-1,-1,-1,65,-1,-1,67,69,-1,-1,-1,-1,-1,-1,-1,-1,-1,-1,-1,-1,-1,-1,-1,-1,-1,-1,-1,-1,-1,-1],"loss_changes":[8.260846E-2,1.4080375E-1,2.4269308E-1,6.4368546E-2,8.9925855E-2,1.5137915E-1,9.652771E-2,1.8391067E-1,1.7372477E-1,0E0,4.2302688E-3,7.940501E-3,1.0752483E-1,2.7969092E-2,2.9472793E-3,1.0503554E-1,3.6634642E-1,2.6430312E-1,1.2955034E-1,2.0275338E-5,0E0,1.23676155E-2,0E0,3.688135E-2,1.9268489E-1,8.059824E-2,3.9221138E-2,0E0,0E0,1.23876914E-1,9.526992E-2,5.190662E-1,8.077404E-2,1.1986172E-2,2.531755E-2,4.5103062E-2,1.0870375E-2,0E0,0E0,0E0,0E0,0E0,0E0,0E0,3.7687253E-2,0E0,0E0,1.639677E-2,3.6655158E-2,0E0,0E0,0E0,0E0,0E0,0E0,0E0,0E0,0E0,0E0,0E0,0E0,0E0,0E0,0E0,0E0,0E0,0E0,0E0,0E0,0E0,0E0],"parents":[2147483647,0,0,1,1,2,2,3,3,4,4,5,5,6,6,7,7,8,8,10,10,11,11,12,12,13,13,14,14,15,15,16,16,17,17,18,18,19,19,21,21,23,23,24,24,25,25,26,26,29,29,30,30,31,31,32,32,33,33,34,34,35,35,36,36,44,44,47,47,48,48],"right_children":[2,4,6,8,10,12,14,16,18,-1,20,22,24,26,28,30,32,34,36,38,-1,40,-1,42,44,46,48,-1,-1,50,52,54,56,58,60,62,64,-1,-1,-1,-1,-1,-1,-1,66,-1,-1,68,70,-1,-1,-1,-1,-1,-1,-1,-1,-1,-1,-1,-1,-1,-1,-1,-1,-1,-1,-1,-1,-1,-1],"split_conditions":[2.0349998E1,2.0150002E1,8.5E1,1.555E1,1.3200001E1,1.15E1,6.75E2,1.515E1,1.8E1,7.832108E-2,7.5E1,3.5E1,1.195E1,1.175E1,7.25E2,1.465E1,1.93E1,1.45E2,2.425E2,5.5E1,1.8396378E-2,1.115E1,5.3748038E-2,7.5E1,1.25E1,1.125E1,2.1E1,8.2111364E-4,2.0496178E-2,1.425E1,1.95E2,1.45E2,4.15E2,5.5E1,1.575E1,7.25E1,1.995E1,9.853364E-4,-4.062653E-4,3.1237794E-2,-5.325794E-3,-6.269474E-2,1.9540787E-3,7.811222E-2,2.205E1,-5.3366948E-2,2.4668314E-2,3.3E2,2.1E2,6.883813E-3,-1.8507417E-2,4.376626E-2,5.2838805E-3,-6.7771034E-4,-6.9903344E-2,3.8267497E-2,4.659577E-3,-1.3176728E-2,5.6159683E-3,6.975893E-2,3.6712017E-2,1.2400409E-2,-1.5130029E-2,3.6556896E-2,1.626879E-2,4.676018E-3,-2.3505976E-2,-1.9905567E-3,-3.2046463E-2,-6.12882E-2,-3.7107468E-4],"split_indices":[2,2,0,1,1,1,0,1,2,0,0,0,1,1,0,1,2,0,0,0,0,1,0,0,1,1,2,0,0,1,0,0,0,0,1,0,2,0,0,0,0,0,0,0,2,0,0,0,0,0,0,0,0,0,0,0,0,0,0,0,0,0,0,0,0,0,0,0,0,0,0],"split_type":[0,0,0,0,0,0,0,0,0,0,0,0,0,0,0,0,0,0,0,0,0,0,0,0,0,0,0,0,0,0,0,0,0,0,0,0,0,0,0,0,0,0,0,0,0,0,0,0,0,0,0,0,0,0,0,0,0,0,0,0,0,0,0,0,0,0,0,0,0,0,0],"sum_hessian":[7.23E2,6.71E2,5.2E1,6.64E2,7E0,3.1E1,2.1E1,5.86E2,7.8E1,3E0,4E0,7E0,2.4E1,1.8E1,3E0,5.18E2,6.8E1,3.2E1,4.6E1,2E0,2E0,2E0,5E0,3E0,2.1E1,3E0,1.5E1,1E0,2E0,4.95E2,2.3E1,4E1,2.8E1,1.5E1,1.7E1,3E1,1.6E1,1E0,1E0,1E0,1E0,2E0,1E0,2E0,1.9E1,1E0,2E0,6E0,9E0,4.78E2,1.7E1,1.2E1,1.1E1,2.5E1,1.5E1,9E0,1.9E1,3E0,1.2E1,8E0,9E0,6E0,2.4E1,4E0,1.2E1,1.4E1,5E0,3E0,3E0,8E0,1E0],"tree_param":{"num_deleted":"0","num_feature":"3","num_nodes":"71","size_leaf_vector":"0"}},{"base_weights":[1.3596131E-2,1.2254963E-2,8.0737114E-2,9.408283E-3,3.4909308E-2,-6.6348076E-2,9.715506E-2,1.5506407E-2,-4.41185E-2,7.478263E-2,6.1703944E-3,6.675408E-2,1.7624028E-1,8.61301E-3,3.5604253E-2,-7.5844474E-2,4.9922157E-2,2.4883747E-3,1.348896E-1,-2.5380693E-2,5.400256E-2,1.2661314E-1,2.8480291E-2,1.193495E-2,-5.9253026E-2,-9.609821E-3,5.950229E-2,-1.7083032E-3,-1.6675211E-1,1.1392657E-1,-1.962916E-2,-3.404045E-2,1.35366E-2,9.382852E-2,1.8601009E-1,3.0706406E-2,-4.1347172E-2,9.2530884E-2,3.3633094E-2,-5.8841705E-4,4.60392E-2,8.448108E-3,1.843493E-1,4.772727E-2,-1.9530974E-1,-3.5520837E-2,1.8758468E-2,4.0928457E-2,1.3164349E-1,1.05024226E-1,-1.5277036E-1,-3.998549E-1,-3.1313833E-2,2.6974997E-2,1.349163E-1,-8.278608E-2,2.574698E-2,5.106926E-3,-4.8791885E-2,4.7732353E-2,-1.4953613E-3,1.00162506E-1,1.2077332E-2,2.2909355E-1,5.2200954E-2,-2.6997248E-2,5.9187315E-2,-1.0578092E-1,-3.0173438E-2,-1.9440651E-2,3.9211128E-2,2.169927E-2,-3.372574E-2,2.4411678E-2,6.627464E-2],"categories":[],"categories_nodes":[],"categories_segments":[],"categories_sizes":[],"default_left":[1,1,1,1,1,0,1,1,1,1,1,1,0,1,1,1,1,1,1,1,1,0,1,1,1,1,1,1,1,1,1,1,1,1,1,1,1,0,1,1,1,0,0,0,0,0,0,0,0,0,0,0,0,0,0,0,0,0,0,0,0,0,0,0,0,0,0,0,0,0,0,0,0,0,0],"id":21,"left_children":[1,3,5,7,9,-1,11,13,15,17,19,21,-1,23,25,27,29,31,33,35,37,-1,39,41,43,45,47,49,51,53,55,57,59,61,63,65,67,-1,69,71,73,-1,-1,-1,-1,-1,-1,-1,-1,-1,-1,-1,-1,-1,-1,-1,-1,-1,-1,-1,-1,-1,-1,-1,-1,-1,-1,-1,-1,-1,-1,-1,-1,-1,-1],"loss_changes":[6.42048E-2,4.552371E-2,4.025375E-2,2.0730354E-1,9.006592E-2,0E0,1.9490734E-2,7.852399E-2,1.9771588E-1,1.4306217E-1,7.2301E-2,2.1595385E-2,0E0,9.652212E-2,1.572483E-1,3.2995287E-1,7.791334E-2,6.9180513E-3,2.0330042E-2,2.7239513E-2,1.1799123E-2,0E0,4.110408E-3,2.4252228E-1,3.0042937E-1,3.8153928E-2,1.2190619E-1,4.6749517E-1,6.82042E-1,1.2786441E-2,2.7923848E-2,2.559096E-3,6.753757E-3,5.0040483E-3,2.8395832E-2,1.3102063E-2,1.3367433E-2,0E0,4.906947E-3,3.686041E-3,5.703373E-4,0E0,0E0,0E0,0E0,0E0,0E0,0E0,0E0,0E0,0E0,0E0,0E0,0E0,0E0,0E0,0E0,0E0,0E0,0E0,0E0,0E0,0E0,0E0,0E0,0E0,0E0,0E0,0E0,0E0,0E0,0E0,0E0,0E0,0E0],"parents":[2147483647,0,0,1,1,2,2,3,3,4,4,6,6,7,7,8,8,9,9,10,10,11,11,13,13,14,14,15,15,16,16,17,17,18,18,19,19,20,20,22,22,23,23,24,24,25,25,26,26,27,27,28,28,29,29,30,30,31,31,32,32,33,33,34,34,35,35,36,36,38,38,39,39,40,40],"right_children":[2,4,6,8,10,-1,12,14,16,18,20,22,-1,24,26,28,30,32,34,36,38,-1,40,42,44,46,48,50,52,54,56,58,60,62,64,66,68,-1,70,72,74,-1,-1,-1,-1,-1,-1,-1,-1,-1,-1,-1,-1,-1,-1,-1,-1,-1,-1,-1,-1,-1,-1,-1,-1,-1,-1,-1,-1,-1,-1,-1,-1,-1,-1],"split_conditions":[1.625E3,1.555E1,1.515E1,1.515E1,1.8E1,-1.9904424E-2,1.525E1,2.725E2,1.995E1,1.45E2,2.275E2,1.875E3,5.2872088E-2,2.65E2,1.065E1,1.45E2,4.85E2,5.5E1,1.7650002E1,7.25E1,1.995E1,3.7983943E-2,2.1E3,2.475E2,1.19E1,1.705E1,1.895E1,1.545E1,1.925E1,3.6E2,6.75E2,1.25E1,8.75E1,2.45E2,1.85E2,1.825E1,8.5E1,2.7759267E-2,2.425E2,2E3,2.525E3,2.5344326E-3,5.530479E-2,1.4318181E-2,-5.8592927E-2,-1.0656252E-2,5.627541E-3,1.2278537E-2,3.9493047E-2,3.150727E-2,-4.5831107E-2,-1.1995647E-1,-9.39415E-3,8.092499E-3,4.047489E-2,-2.4835827E-2,7.7240947E-3,1.5320779E-3,-1.4637566E-2,1.4319707E-2,-4.4860842E-4,3.0048752E-2,3.6231996E-3,6.872807E-2,1.5660288E-2,-8.099175E-3,1.7756196E-2,-3.1734277E-2,-9.052032E-3,-5.8321953E-3,1.1763339E-2,6.5097813E-3,-1.0117722E-2,7.323504E-3,1.9882394E-2],"split_indices":[0,1,1,1,2,0,1,0,2,0,0,0,0,0,1,0,0,0,2,0,2,0,0,0,1,2,2,1,2,0,0,0,0,0,0,2,0,0,0,0,0,0,0,0,0,0,0,0,0,0,0,0,0,0,0,0,0,0,0,0,0,0,0,0,0,0,0,0,0,0,0,0,0,0,0],"split_type":[0,0,0,0,0,0,0,0,0,0,0,0,0,0,0,0,0,0,0,0,0,0,0,0,0,0,0,0,0,0,0,0,0,0,0,0,0,0,0,0,0,0,0,0,0,0,0,0,0,0,0,0,0,0,0,0,0,0,0,0,0,0,0,0,0,0,0,0,0,0,0,0,0,0,0],"sum_hessian":[7.23E2,7.1E2,1.3E1,6.32E2,7.8E1,1E0,1.2E1,5.68E2,6.4E1,3.2E1,4.6E1,1E1,2E0,4.24E2,1.44E2,4.8E1,1.6E1,1.5E1,1.7E1,2.8E1,1.8E1,3E0,7E0,4.05E2,1.9E1,5E1,9.4E1,2.7E1,2.1E1,8E0,8E0,3E0,1.2E1,1.1E1,6E0,6E0,2.2E1,5E0,1.3E1,3E0,4E0,3.98E2,7E0,1.1E1,8E0,2.6E1,2.4E1,7.6E1,1.8E1,1.6E1,1.1E1,7E0,1.4E1,2E0,6E0,3E0,5E0,1E0,2E0,3E0,9E0,1E1,1E0,4E0,2E0,2E0,4E0,2E0,2E1,1E0,1.2E1,2E0,1E0,3E0,1E0],"tree_param":{"num_deleted":"0","num_feature":"3","num_nodes":"75","size_leaf_vector":"0"}},{"base_weights":[9.7437315E-3,1.37238065E-2,-5.578181E-3,9.419042E-3,8.194318E-2,2.9218223E-2,-2.5455514E-2,-1.2903276E-2,1.948068E-2,1.7621739E-1,4.615813E-2,1.5754491E-1,-2.7998183E-3,-1.6091862E-1,1.0060298E-2,4.695174E-3,-1.0169172E-1,8.997144E-2,1.1706601E-2,6.805769E-2,2.944026E-1,-2.0680428E-2,7.18713E-2,6.813002E-2,1.8255925E-1,5.8953036E-2,-4.615183E-2,-4.010652E-1,-5.413208E-2,2.5459835E-2,-2.9595809E-2,2.3182513E-2,-5.707157E-2,-2.990961E-2,-2.4990845E-1,-9.7085E-2,1.9533889E-1,5.045734E-2,-7.4642785E-3,1.4323692E-1,-1.5391922E-1,3.6309752E-1,4.4158936E-2,-1.4935398E-1,1.9037792E-2,1.6392925E-1,1.6773077E-2,1.0174497E-1,-1.6357422E-2,-1.68876E-1,9.569033E-2,-1.6186332E-2,-1.152966E-1,-4.870285E-1,1.4375687E-2,1.0859617E-1,-8.752075E-2,-3.096703E-2,4.3239284E-2,-7.837467E-2,1.0202995E-2,4.4841155E-2,-8.291104E-2,-2.6728868E-1,9.805679E-3,-8.709541E-2,6.675601E-2,-3.5040173E-1,6.787872E-2,1.6509863E-2,-7.869091E-1,2.6899207E-1,4.2695574E-2,6.6195284E-3,2.1092017E-1,-1.378642E-1,5.110062E-3,2.2165616E-1,1.7072042E-2,1.006724E-1,-3.3750534E-2,6.6794395E-2,3.7336922E-1,-3.9882448E-2,1.1539841E-1,-2.1325588E-1,-4.0058136E-2,3.9057636E-1,4.60216E-3,2.7945518E-2,-4.2099293E-2,8.176327E-2,-1.5512848E-1,-1.7629623E-2,1.8052387E-1,-4.1608524E-1,-2.54666E-2,6.30846E-2,-4.3054435E-2,2.2444153E-2,6.832554E-2,-4.4631958E-2,-1.1783075E-1,2.1086121E-2,-1.9555569E-2],"categories":[],"categories_nodes":[],"categories_segments":[],"categories_sizes":[],"default_left":[1,1,1,1,1,1,1,1,1,1,1,1,1,1,1,1,1,1,1,1,1,1,1,1,0,1,1,1,1,1,1,1,1,1,1,1,1,1,1,1,0,0,0,0,1,1,1,0,0,1,1,1,1,0,0,1,1,1,1,1,1,0,0,0,0,0,0,0,0,0,0,0,0,0,0,0,0,0,0,0,0,0,0,0,0,0,0,0,0,0,0,0,0,0,0,0,0,0,0,0,0,0,0,0,0],"id":22,"left_children":[1,3,5,7,9,11,13,15,17,19,21,23,25,27,29,31,33,35,37,39,41,43,45,47,-1,49,51,53,55,57,59,61,63,65,67,69,71,73,75,77,-1,-1,-1,-1,79,81,83,-1,-1,85,87,89,91,-1,-1,93,95,97,99,101,103,-1,-1,-1,-1,-1,-1,-1,-1,-1,-1,-1,-1,-1,-1,-1,-1,-1,-1,-1,-1,-1,-1,-1,-1,-1,-1,-1,-1,-1,-1,-1,-1,-1,-1,-1,-1,-1,-1,-1,-1,-1,-1,-1,-1],"loss_changes":[4.4227786E-2,1.6808745E-1,1.04492724E-1,1.21984065E-1,1.0656878E-1,2.264234E-1,4.634828E-1,2.6454657E-1,2.0389903E-1,9.5009506E-2,4.617075E-2,1.2165427E-2,1.2319076E-1,4.9117792E-1,4.77763E-2,1.6347325E-1,2.90426E-1,7.4822193E-1,2.5147206E-1,1.2217523E-1,5.2727878E-2,4.3728847E-2,9.362279E-2,1.30244475E-2,0E0,1.7518646E-1,5.4076623E-2,2.2127742E-1,9.10036E-2,5.7520345E-2,4.3509148E-2,2.5648046E-1,4.665594E-1,1.1637216E-1,3.112042E-1,1.1100384E0,2.583391E-1,7.864499E-1,3.7291482E-1,4.5684665E-2,0E0,0E0,0E0,0E0,3.3563226E-2,1.1746846E-1,7.724208E-2,0E0,0E0,8.608133E-3,4.548332E-1,2.4048224E-2,7.5477935E-2,0E0,0E0,3.0419964E-2,2.54458E-1,1.8631835E-2,2.0898394E-2,8.054532E-3,4.6226117E-3,0E0,0E0,0E0,0E0,0E0,0E0,0E0,0E0,0E0,0E0,0E0,0E0,0E0,0E0,0E0,0E0,0E0,0E0,0E0,0E0,0E0,0E0,0E0,0E0,0E0,0E0,0E0,0E0,0E0,0E0,0E0,0E0,0E0,0E0,0E0,0E0,0E0,0E0,0E0,0E0,0E0,0E0,0E0,0E0],"parents":[2147483647,0,0,1,1,2,2,3,3,4,4,5,5,6,6,7,7,8,8,9,9,10,10,11,11,12,12,13,13,14,14,15,15,16,16,17,17,18,18,19,19,20,20,21,21,22,22,23,23,25,25,26,26,27,27,28,28,29,29,30,30,31,31,32,32,33,33,34,34,35,35,36,36,37,37,38,38,39,39,44,44,45,45,46,46,49,49,50,50,51,51,52,52,55,55,56,56,57,57,58,58,59,59,60,60],"right_children":[2,4,6,8,10,12,14,16,18,20,22,24,26,28,30,32,34,36,38,40,42,44,46,48,-1,50,52,54,56,58,60,62,64,66,68,70,72,74,76,78,-1,-1,-1,-1,80,82,84,-1,-1,86,88,90,92,-1,-1,94,96,98,100,102,104,-1,-1,-1,-1,-1,-1,-1,-1,-1,-1,-1,-1,-1,-1,-1,-1,-1,-1,-1,-1,-1,-1,-1,-1,-1,-1,-1,-1,-1,-1,-1,-1,-1,-1,-1,-1,-1,-1,-1,-1,-1,-1,-1,-1],"split_conditions":[1.955E1,1.9349998E1,1.025E2,1.025E2,1.15E2,1.15E1,1.525E2,8.75E1,1.275E2,5.25E1,1.8E2,3.5E1,2.105E1,1.155E1,4.65E2,1.825E1,1.725E1,1.125E1,1.145E1,1.945E1,1.2450001E1,1.115E1,6.6E2,1.115E1,5.4767776E-2,1.195E1,8.5E1,2.12E1,1.2E1,2.2E2,6.25E2,1.545E1,2.5E0,1.6650002E1,1.33E1,1.115E1,1.3700001E1,1.115E1,1.165E1,5E0,-4.6175767E-2,1.0892926E-1,1.3247681E-2,-4.4806197E-2,1.1799999E1,1.115E1,1.625E3,3.0523492E-2,-4.9072267E-3,5E1,1.2700001E1,1.4049999E1,1.175E1,-1.4610855E-1,4.312706E-3,1.15E2,1.225E1,1.105E1,3.375E2,1.3200001E1,1.125E3,1.3452347E-2,-2.4873313E-2,-8.0186605E-2,2.941704E-3,-2.6128624E-2,2.0026803E-2,-1.05120525E-1,2.0363618E-2,4.952959E-3,-2.3607273E-1,8.0697626E-2,1.2808673E-2,1.9858587E-3,6.327605E-2,-4.135926E-2,1.5330188E-3,6.649685E-2,5.121613E-3,3.0201722E-2,-1.012516E-2,2.003832E-2,1.1201077E-1,-1.1964735E-2,3.4619525E-2,-6.3976765E-2,-1.2017441E-2,1.1717291E-1,1.380648E-3,8.383656E-3,-1.2629788E-2,2.4528982E-2,-4.6538547E-2,-5.2888873E-3,5.4157164E-2,-1.24825574E-1,-7.6399804E-3,1.8925382E-2,-1.2916331E-2,6.733246E-3,2.0497663E-2,-1.3389588E-2,-3.5349227E-2,6.3258368E-3,-5.866671E-3],"split_indices":[2,2,0,0,0,1,0,0,0,0,0,0,2,1,0,2,2,1,1,2,1,1,0,1,0,1,0,2,1,0,0,1,0,2,1,1,1,1,1,0,0,0,0,0,1,1,0,0,0,0,1,1,1,0,0,0,1,1,0,1,0,0,0,0,0,0,0,0,0,0,0,0,0,0,0,0,0,0,0,0,0,0,0,0,0,0,0,0,0,0,0,0,0,0,0,0,0,0,0,0,0,0,0,0,0],"split_type":[0,0,0,0,0,0,0,0,0,0,0,0,0,0,0,0,0,0,0,0,0,0,0,0,0,0,0,0,0,0,0,0,0,0,0,0,0,0,0,0,0,0,0,0,0,0,0,0,0,0,0,0,0,0,0,0,0,0,0,0,0,0,0,0,0,0,0,0,0,0,0,0,0,0,0,0,0,0,0,0,0,0,0,0,0,0,0,0,0,0,0,0,0,0,0,0,0,0,0,0,0,0,0,0,0],"sum_hessian":[7.23E2,5.74E2,1.49E2,5.41E2,3.3E1,5.4E1,9.5E1,1.68E2,3.73E2,8E0,2.5E1,1E1,4.4E1,1.9E1,7.6E1,1.41E2,2.7E1,3.6E1,3.37E2,5E0,3E0,7E0,1.8E1,3E0,7E0,1.8E1,2.6E1,5E0,1.4E1,5.5E1,2.1E1,1.09E2,3.2E1,1.9E1,8E0,1.3E1,2.3E1,1.11E2,2.26E2,4E0,1E0,2E0,1E0,1E0,6E0,6E0,1.2E1,2E0,1E0,2E0,1.6E1,1.9E1,7E0,4E0,1E0,2E0,1.2E1,1.3E1,4.2E1,9E0,1.2E1,9.1E1,1.8E1,7E0,2.5E1,1.2E1,7E0,6E0,2E0,1.2E1,1E0,1.5E1,8E0,8.8E1,2.3E1,1.9E1,2.07E2,2E0,2E0,2E0,4E0,5E0,1E0,8E0,4E0,1E0,1E0,3E0,1.3E1,7E0,1.2E1,1E0,6E0,1E0,1E0,1E0,1.1E1,1E0,1.2E1,2.4E1,1.8E1,6E0,3E0,9E0,3E0],"tree_param":{"num_deleted":"0","num_feature":"3","num_nodes":"105","size_leaf_vector":"0"}},{"base_weights":[6.602489E-3,-2.6148972E-3,1.4329271E-2,-1.2601187E-2,2.8362557E-2,2.6021078E-2,-4.8628743E-3,1.0342811E-3,-6.609389E-2,8.216175E-2,-4.895042E-3,1.6234944E-2,9.305327E-2,2.2211075E-2,-2.0323336E-2,-9.594984E-3,5.963332E-2,4.2078495E-3,-1.7527199E-1,2.6808457E-2,1.3941804E-1,3.31892E-2,-5.66056E-2,3.0039672E-2,-1.3651901E-1,2.4143867E-1,2.1375656E-2,1.1758926E-1,-1.5971714E-3,-1.2391214E-1,6.846787E-3,-3.178708E-5,-9.0880394E-2,2.227468E-2,1.4847946E-1,9.481684E-2,-2.994585E-2,-9.3900615E-1,-3.8245626E-2,6.783416E-2,-4.1490283E-2,2.010498E-1,6.0359E-2,-8.672623E-3,1.1778011E-1,5.223751E-2,-9.169108E-2,1.6765619E-2,8.734662E-2,9.691353E-2,-2.1013641E-1,6.202507E-2,4.0844727E-1,-2.9247072E-2,5.2392006E-2,1.4751516E-1,5.2175142E-2,4.3507025E-2,-3.3278007E-2,-2.4198322E-1,-5.3100586E-3,1.8415451E-2,-2.2911938E-2,-6.5753036E-3,1.0612212E-1,5.0774097E-2,-1.22596234E-1,3.7490103E-2,-2.7084032E-2,-3.2157898E-3,1.738861E-1,-6.497898E-2,1.16175845E-1,-1.0312131E-1,2.1459961E-1,1.2946384E-1,3.975381E-2,9.478092E-3,-8.2086086E-2,3.301875E-2,2.5155702E-1,1.3625281E-2,1.9374752E-1,-6.721449E-2,2.5399344E-2,2.7537027E-2,1.3689876E-1,-1.012764E-1,3.0837059E-2,4.1093428E-2,-6.1014224E-2,2.3936559E-2,1.5294965E-1,-3.868866E-2,1.4048624E-1,-1.488684E-1,-3.8516298E-1,4.905653E-1,-1.21796034E-1,1.13965034E-1,4.5357656E-1,-8.590174E-2,1.3397217E-2,-5.7162285E-2,6.5216355E-2,-1.3903618E-2,7.2170734E-2,-1.4354451E-1,7.3956884E-2,-1.2072468E-1,-1.7316977E-2,-4.7984275E-1,-3.4364064E-3,6.0129803E-2,-2.653334E-2,-2.1247456E-2,3.0900689E-2,-5.731496E-2,1.0533492E-2],"categories":[],"categories_nodes":[],"categories_segments":[],"categories_sizes":[],"default_left":[1,1,1,1,1,1,1,1,1,1,1,1,1,1,1,1,1,1,1,1,1,1,1,1,1,1,1,1,1,1,1,1,1,1,0,1,1,0,1,1,1,1,1,1,1,0,1,1,1,1,1,1,1,1,1,0,1,1,1,1,1,1,1,0,0,0,0,0,0,0,0,0,0,0,0,0,0,0,0,0,0,0,0,0,0,0,0,0,0,0,0,0,0,0,0,0,0,0,0,0,0,0,0,0,0,0,0,0,0,0,0,0,0,0,0,0,0,0,0],"id":23,"left_children":[1,3,5,7,9,11,13,15,17,19,21,23,25,27,29,31,33,35,37,39,41,43,45,47,49,51,53,55,57,59,61,63,65,67,-1,69,71,-1,73,75,77,79,81,83,85,-1,87,89,91,93,95,97,99,101,103,-1,105,107,109,111,113,115,117,-1,-1,-1,-1,-1,-1,-1,-1,-1,-1,-1,-1,-1,-1,-1,-1,-1,-1,-1,-1,-1,-1,-1,-1,-1,-1,-1,-1,-1,-1,-1,-1,-1,-1,-1,-1,-1,-1,-1,-1,-1,-1,-1,-1,-1,-1,-1,-1,-1,-1,-1,-1,-1,-1,-1,-1],"loss_changes":[5.1601287E-2,1.02752194E-1,8.853653E-2,1.831473E-1,1.4532997E-1,1.5920585E-1,6.323777E-2,1.2576798E-1,3.9218345E-1,9.451145E-2,1.0231592E-1,4.574772E-1,3.2455233E-1,1.250811E-1,2.710424E-1,1.3292368E-1,9.9586956E-2,1.0186761E-1,2.0571213E0,5.0448522E-2,6.095305E-2,1.0725537E-1,8.880358E-2,1.4915328E-1,3.2968962E-1,2.7430218E-1,3.607522E-2,1.3836712E-2,6.575006E-2,2.7878457E-1,2.6930625E-2,1.07669234E-1,8.709316E-2,1.8288694E-2,0E0,7.032149E-2,1.3040741E-1,0E0,3.1739295E-1,1.3889737E-2,1.5261734E-2,5.9588164E-2,4.7230065E-2,4.3594573E-2,1.3483465E-2,0E0,2.3089096E-2,3.090458E-1,1.5025494E-1,3.4978002E-2,9.279084E-2,5.3239733E-1,1.4757037E-2,2.2894826E-2,2.3397397E-2,0E0,7.6098554E-3,1.1883427E-1,3.5594366E-2,5.657574E-1,1.6872777E-2,2.838781E-2,2.5917452E-2,0E0,0E0,0E0,0E0,0E0,0E0,0E0,0E0,0E0,0E0,0E0,0E0,0E0,0E0,0E0,0E0,0E0,0E0,0E0,0E0,0E0,0E0,0E0,0E0,0E0,0E0,0E0,0E0,0E0,0E0,0E0,0E0,0E0,0E0,0E0,0E0,0E0,0E0,0E0,0E0,0E0,0E0,0E0,0E0,0E0,0E0,0E0,0E0,0E0,0E0,0E0,0E0,0E0,0E0,0E0,0E0],"parents":[2147483647,0,0,1,1,2,2,3,3,4,4,5,5,6,6,7,7,8,8,9,9,10,10,11,11,12,12,13,13,14,14,15,15,16,16,17,17,18,18,19,19,20,20,21,21,22,22,23,23,24,24,25,25,26,26,27,27,28,28,29,29,30,30,31,31,32,32,33,33,35,35,36,36,38,38,39,39,40,40,41,41,42,42,43,43,44,44,46,46,47,47,48,48,49,49,50,50,51,51,52,52,53,53,54,54,56,56,57,57,58,58,59,59,60,60,61,61,62,62],"right_children":[2,4,6,8,10,12,14,16,18,20,22,24,26,28,30,32,34,36,38,40,42,44,46,48,50,52,54,56,58,60,62,64,66,68,-1,70,72,-1,74,76,78,80,82,84,86,-1,88,90,92,94,96,98,100,102,104,-1,106,108,110,112,114,116,118,-1,-1,-1,-1,-1,-1,-1,-1,-1,-1,-1,-1,-1,-1,-1,-1,-1,-1,-1,-1,-1,-1,-1,-1,-1,-1,-1,-1,-1,-1,-1,-1,-1,-1,-1,-1,-1,-1,-1,-1,-1,-1,-1,-1,-1,-1,-1,-1,-1,-1,-1,-1,-1,-1,-1,-1],"split_conditions":[1.7650002E1,3.025E2,1.955E1,2.375E2,3.875E2,4.65E2,1.025E2,1.825E2,1.195E1,1.695E1,1.675E1,3.15E2,6.6E2,1.15E1,1.525E2,1.745E1,1.72E1,1.045E1,1.285E1,3.55E2,1.755E1,1.6349998E1,1.055E1,1.465E1,1.14E1,1.165E1,1.625E3,2.14E1,2.105E1,1.3299999E1,4.65E2,1.7349998E1,1.115E1,1.6599998E1,4.454384E-2,1.695E1,1.175E1,-2.8170186E-1,1.535E1,3.2E2,1.11E1,1.1E1,3.725E2,1.055E1,1.18E1,1.5671253E-2,1.505E1,1.285E1,1.05E2,3.45E2,1.525E1,1.91E1,4.95E2,1.525E1,1.515E1,4.425455E-2,3.5E1,1.195E1,2.1150002E1,2.005E1,1.975E1,2.2E2,6.75E2,-1.9725913E-3,3.1836636E-2,1.523223E-2,-3.677887E-2,1.1247031E-2,-8.12521E-3,-9.64737E-4,5.2165832E-2,-1.9493695E-2,3.4852754E-2,-3.0936394E-2,6.4379886E-2,3.8839154E-2,1.1926143E-2,2.8434277E-3,-2.4625827E-2,9.905625E-3,7.546711E-2,4.0875846E-3,5.812426E-2,-2.0164348E-2,7.6198033E-3,8.261109E-3,4.1069627E-2,-3.038292E-2,9.251118E-3,1.2328029E-2,-1.8304268E-2,7.180968E-3,4.5884896E-2,-1.1606598E-2,4.2145874E-2,-4.466052E-2,-1.155489E-1,1.4716959E-1,-3.6538813E-2,3.418951E-2,1.3607298E-1,-2.5770523E-2,4.0191654E-3,-1.7148687E-2,1.9564908E-2,-4.1710855E-3,2.1651221E-2,-4.3063354E-2,2.2187065E-2,-3.6217406E-2,-5.1950933E-3,-1.4395283E-1,-1.0309219E-3,1.8038942E-2,-7.960002E-3,-6.374237E-3,9.270207E-3,-1.7194489E-2,3.1600478E-3],"split_indices":[2,0,2,0,0,0,0,0,1,2,2,0,0,1,0,2,2,1,1,0,2,2,1,1,1,1,0,2,2,1,0,2,1,2,0,2,1,0,1,0,1,1,0,1,1,0,1,1,0,0,1,2,0,1,1,0,0,1,2,2,2,0,0,0,0,0,0,0,0,0,0,0,0,0,0,0,0,0,0,0,0,0,0,0,0,0,0,0,0,0,0,0,0,0,0,0,0,0,0,0,0,0,0,0,0,0,0,0,0,0,0,0,0,0,0,0,0,0,0],"split_type":[0,0,0,0,0,0,0,0,0,0,0,0,0,0,0,0,0,0,0,0,0,0,0,0,0,0,0,0,0,0,0,0,0,0,0,0,0,0,0,0,0,0,0,0,0,0,0,0,0,0,0,0,0,0,0,0,0,0,0,0,0,0,0,0,0,0,0,0,0,0,0,0,0,0,0,0,0,0,0,0,0,0,0,0,0,0,0,0,0,0,0,0,0,0,0,0,0,0,0,0,0,0,0,0,0,0,0,0,0,0,0,0,0,0,0,0,0,0,0],"sum_hessian":[7.23E2,3.3E2,3.93E2,2.5E2,8E1,2.44E2,1.49E2,2E2,5E1,3E1,5E1,2.14E2,3E1,5.4E1,9.5E1,1.7E2,3E1,3.1E1,1.9E1,1.6E1,1.4E1,2.9E1,2.1E1,1.97E2,1.7E1,9E0,2.1E1,1E1,4.4E1,1.9E1,7.6E1,1.53E2,1.7E1,2.2E1,8E0,8E0,2.3E1,2E0,1.7E1,1E1,6E0,7E0,7E0,2E1,9E0,5E0,1.6E1,1.61E2,3.6E1,4E0,1.3E1,5E0,4E0,8E0,1.3E1,6E0,4E0,1.8E1,2.6E1,9E0,1E1,5.5E1,2.1E1,1.45E2,8E0,3E0,1.4E1,1.7E1,5E0,4E0,4E0,1.9E1,4E0,1.4E1,3E0,2E0,8E0,3E0,3E0,2E0,5E0,6E0,1E0,7E0,1.3E1,2E0,7E0,1.5E1,1E0,1.23E2,3.8E1,1.9E1,1.7E1,1E0,3E0,1.1E1,2E0,1E0,4E0,1E0,3E0,3E0,5E0,1E0,1.2E1,1E0,3E0,2E0,1.6E1,3E0,2.3E1,4E0,5E0,2E0,8E0,1.3E1,4.2E1,1E1,1.1E1],"tree_param":{"num_deleted":"0","num_feature":"3","num_nodes":"119","size_leaf_vector":"0"}},{"base_weights":[4.7800886E-3,-2.0816736E-3,1.1997639E-2,2.9393944E-3,-2.0492469E-1,7.5431414E-2,3.4200228E-3,-1.2663441E-2,2.2912156E-2,-2.4089026E-1,4.1399956E-2,1.2668553E-1,-1.2657653E-1,-5.5232223E-2,7.842461E-3,4.4271178E-3,-1.4809427E-1,1.5853718E-1,9.839622E-3,2.776315E-1,8.442456E-2,-1.4879441E-1,2.5583267E-2,-1.2192631E-2,-3.2375208E-1,2.0526731E-2,-7.806472E-3,1.3316971E-2,-8.316304E-2,-8.769635E-2,-5.215149E-1,-1.2101936E-1,2.152149E-1,-1.0165969E-1,3.027678E-2,1.8687248E-2,3.176743E-1,1.49182E-1,-2.9217113E-2,-5.9174348E-2,3.162644E-2,-8.92067E-3,-4.7670746E-1,1.1507198E-2,7.699073E-2,-5.1825047E-2,-1.6676475E-3,-2.3071809E-2,2.2113362E-2,-2.0756388E-1,8.273339E-2,-3.668705E-1,-4.2769487E-4,-1.4226246E-1,-6.400099E-1,2.3681727E-1,-1.1205673E-2,3.5519958E-2,-3.6331153E-1,-4.3247524E-4,1.0332669E-1,3.896245E-2,2.8208613E-1,-1.2084452E-1,4.571703E-3,-3.0565739E-2,-6.7068644E-2,7.218437E-2,-1.8615723E-3,3.880324E-2,-6.611454E-3,2.5702158E-2,1.0446262E-1,-1.6358742E-2,-1.5413427E-1,-3.6482956E-2,8.29791E-3],"categories":[],"categories_nodes":[],"categories_segments":[],"categories_sizes":[],"default_left":[1,1,1,1,1,1,1,1,1,0,0,1,1,1,1,1,1,1,1,1,1,0,0,1,1,1,1,1,1,1,1,0,1,1,1,0,0,1,1,1,1,0,0,1,1,1,1,0,0,0,0,0,0,0,0,0,0,0,0,0,0,0,0,0,0,0,0,0,0,0,0,0,0,0,0,0,0],"id":24,"left_children":[1,3,5,7,9,11,13,15,17,-1,-1,19,21,23,25,27,29,31,33,35,37,-1,-1,39,41,43,45,47,49,51,53,-1,55,57,59,-1,-1,61,63,65,67,-1,-1,69,71,73,75,-1,-1,-1,-1,-1,-1,-1,-1,-1,-1,-1,-1,-1,-1,-1,-1,-1,-1,-1,-1,-1,-1,-1,-1,-1,-1,-1,-1,-1,-1],"loss_changes":[3.5881154E-2,3.7948012E-1,1.9181305E-1,1.1372409E-1,8.9705735E-2,4.5089248E-1,8.1361555E-2,4.7514626E-1,2.821141E-1,0E0,0E0,1.9345123E-1,3.423266E-2,2.5030628E-1,5.792238E-2,1.4360294E-1,4.730031E-1,2.4786994E-1,3.3805108E-1,6.664556E-2,2.1041466E-1,0E0,0E0,4.3045375E-2,1.402129E-1,8.1107974E-2,3.5312697E-2,5.396521E-2,3.680126E-1,5.114693E-1,4.376912E-2,0E0,6.134838E-2,8.384508E-1,2.8045824E-1,0E0,0E0,2.5268465E-1,3.4608267E-2,2.0844862E-4,1.5074628E-2,0E0,0E0,6.949598E-2,2.8312981E-2,5.5535037E-2,4.0549394E-2,0E0,0E0,0E0,0E0,0E0,0E0,0E0,0E0,0E0,0E0,0E0,0E0,0E0,0E0,0E0,0E0,0E0,0E0,0E0,0E0,0E0,0E0,0E0,0E0,0E0,0E0,0E0,0E0,0E0,0E0],"parents":[2147483647,0,0,1,1,2,2,3,3,4,4,5,5,6,6,7,7,8,8,11,11,12,12,13,13,14,14,15,15,16,16,17,17,18,18,19,19,20,20,23,23,24,24,25,25,26,26,27,27,28,28,29,29,30,30,32,32,33,33,34,34,37,37,38,38,39,39,40,40,43,43,44,44,45,45,46,46],"right_children":[2,4,6,8,10,12,14,16,18,-1,-1,20,22,24,26,28,30,32,34,36,38,-1,-1,40,42,44,46,48,50,52,54,-1,56,58,60,-1,-1,62,64,66,68,-1,-1,70,72,74,76,-1,-1,-1,-1,-1,-1,-1,-1,-1,-1,-1,-1,-1,-1,-1,-1,-1,-1,-1,-1,-1,-1,-1,-1,-1,-1,-1,-1,-1,-1],"split_conditions":[1.245E1,1.225E1,1.335E1,1.7650002E1,2.225E1,2.25E2,1.355E1,1.725E1,1.7849998E1,-7.2267085E-2,1.24199875E-2,1.775E1,1.7849998E1,1.655E1,1.8849998E1,1.205E1,1.195E1,1.125E1,3.5E1,6E1,1.275E1,-4.4638325E-2,7.6749804E-3,1.125E2,7.5E1,1.8150002E1,1.9150002E1,1.505E1,1.6349998E1,1.7349998E1,1.8E2,-3.630581E-2,3.6E2,1.125E1,1.165E1,5.6061745E-3,9.53023E-2,1.8150002E1,6.5E1,1.25E1,1.925E2,-2.676201E-3,-1.4301224E-1,1.435E1,1.435E1,1.5299999E1,1.435E1,-6.921543E-3,6.634009E-3,-6.2269166E-2,2.4820019E-2,-1.10061154E-1,-1.2830847E-4,-4.267874E-2,-1.9200297E-1,7.104518E-2,-3.3617022E-3,1.0655988E-2,-1.0899346E-1,-1.2974258E-4,3.0998008E-2,1.1688735E-2,8.462584E-2,-3.625336E-2,1.3715109E-3,-9.169722E-3,-2.0120595E-2,2.1655312E-2,-5.584717E-4,1.16409715E-2,-1.9834363E-3,7.710648E-3,3.133879E-2,-4.907623E-3,-4.6240285E-2,-1.0944887E-2,2.489373E-3],"split_indices":[1,1,1,2,2,0,1,2,2,0,0,2,2,2,2,1,1,1,0,0,1,0,0,0,0,2,2,2,2,2,0,0,0,1,1,0,0,2,0,0,0,0,0,1,1,1,1,0,0,0,0,0,0,0,0,0,0,0,0,0,0,0,0,0,0,0,0,0,0,0,0,0,0,0,0,0,0],"split_type":[0,0,0,0,0,0,0,0,0,0,0,0,0,0,0,0,0,0,0,0,0,0,0,0,0,0,0,0,0,0,0,0,0,0,0,0,0,0,0,0,0,0,0,0,0,0,0,0,0,0,0,0,0,0,0,0,0,0,0,0,0,0,0,0,0,0,0,0,0,0,0,0,0,0,0,0,0],"sum_hessian":[7.23E2,3.71E2,3.52E2,3.63E2,8E0,4.1E1,3.11E2,2.04E2,1.59E2,7E0,1E0,3.3E1,8E0,2.1E1,2.9E2,1.82E2,2.2E1,1.3E1,1.46E2,6E0,2.7E1,7E0,1E0,1.9E1,2E0,1.6E2,1.3E2,1.66E2,1.6E1,2E1,2E0,2E0,1.1E1,2.2E1,1.24E2,1E0,5E0,1.7E1,1E1,9E0,1E1,1E0,1E0,1.39E2,2.1E1,1.5E1,1.15E2,3.2E1,1.34E2,9E0,7E0,4E0,1.6E1,1E0,1E0,1E1,1E0,1.5E1,7E0,8.8E1,3.6E1,1E1,7E0,2E0,8E0,3E0,6E0,4E0,6E0,5.5E1,8.4E1,8E0,1.3E1,1.2E1,3E0,2.5E1,9E1],"tree_param":{"num_deleted":"0","num_feature":"3","num_nodes":"77","size_leaf_vector":"0"}},{"base_weights":[2.6307541E-3,-2.3363586E-4,1.6097482E-2,2.6508495E-2,-3.1001978E-3,1.13172054E-1,9.491698E-3,-1.7334037E-2,9.903873E-2,-1.6887361E-2,8.540335E-3,1.5400569E-1,-6.2192283E-3,-9.405817E-3,2.5626607E-2,3.2170568E-2,-4.548947E-2,2.0047842E-1,4.8468947E-2,-1.1821647E-2,-1.5009668E-1,6.5832615E-2,-4.8018064E-4,-2.9148102E-2,1.981926E-2,1.670564E-2,-3.8070183E-2,1.5806723E-1,6.9170985E-3,5.1182967E-2,-1.0749531E-1,-1.14123605E-1,1.1686598E-2,3.0308533E-1,9.8818585E-2,-2.2626877E-1,8.186938E-2,4.371637E-3,-4.487849E-2,-1.7765617E-1,3.518963E-2,9.345487E-2,-7.7737264E-2,-5.5652395E-2,7.97178E-3,-5.53751E-2,4.105087E-2,-5.50766E-2,4.777336E-2,6.1492376E-2,4.170456E-1,-9.707737E-2,2.3094326E-2,1.9023132E-2,6.3362546E-2,2.4062539E-2,-1.5402603E-2,1.1221361E-1,-2.9630661E-2,-2.0466622E-2,7.358604E-2,-6.3282326E-2,1.5345846E-1,-7.8858376E-2,-2.2116318E-1,2.087574E-1,6.1291557E-2,-1.3350105E-1,-2.5391579E-3,1.8503189E-3,-3.895382E-1,8.296464E-2,4.0430394E-3,-7.414945E-2,-3.675874E-2,-1.8620925E-2,8.838463E-2,2.0331621E-2,-8.933842E-2,-1.7183939E-2,9.6806206E-2,2.9585266E-2,9.417343E-2,-3.2811102E-1,3.4619015E-2,6.218556E-2,-4.1318093E-3],"categories":[],"categories_nodes":[],"categories_segments":[],"categories_sizes":[],"default_left":[1,1,1,1,1,1,1,1,1,1,1,0,1,1,1,1,1,1,1,1,1,1,1,0,0,1,1,1,1,1,0,0,1,0,0,0,1,1,1,1,0,1,1,1,1,1,1,1,1,1,0,1,1,0,0,0,0,0,0,0,0,0,0,0,0,0,0,0,0,0,0,0,0,0,0,0,0,0,0,0,0,0,0,0,0,0,0],"id":25,"left_children":[1,3,5,7,9,11,13,15,17,19,21,-1,23,25,27,29,31,33,35,37,39,41,43,-1,-1,45,47,49,51,53,-1,-1,55,-1,-1,-1,57,59,61,63,-1,65,67,69,71,73,75,77,79,81,-1,83,85,-1,-1,-1,-1,-1,-1,-1,-1,-1,-1,-1,-1,-1,-1,-1,-1,-1,-1,-1,-1,-1,-1,-1,-1,-1,-1,-1,-1,-1,-1,-1,-1,-1,-1],"loss_changes":[2.7931308E-2,4.5923654E-2,8.036502E-2,1.8615147E-1,8.696928E-2,3.995923E-2,3.6830205E-2,5.3034894E-2,1.0313824E-1,1.6557607E-1,1.5197256E-1,0E0,2.3687934E-3,4.2550214E-2,1.5997007E-1,4.2677294E-2,9.5515236E-2,4.306656E-2,1.6534622E-1,1.286679E-1,5.2209258E-2,1.6589385E-1,1.1935357E-1,0E0,0E0,5.4917857E-2,4.2048253E-2,1.7444126E-1,9.981779E-2,3.8866587E-3,0E0,0E0,5.0641866E-3,0E0,0E0,0E0,5.407571E-2,2.8001085E-1,2.9807395E-1,1.6946584E-2,0E0,1.1329427E-1,2.9014342E-2,6.534983E-1,6.507188E-2,7.043965E-5,6.6609085E-2,6.1239727E-2,1.758872E-2,4.5131594E-3,0E0,2.5476924E-1,5.453641E-2,0E0,0E0,0E0,0E0,0E0,0E0,0E0,0E0,0E0,0E0,0E0,0E0,0E0,0E0,0E0,0E0,0E0,0E0,0E0,0E0,0E0,0E0,0E0,0E0,0E0,0E0,0E0,0E0,0E0,0E0,0E0,0E0,0E0,0E0],"parents":[2147483647,0,0,1,1,2,2,3,3,4,4,5,5,6,6,7,7,8,8,9,9,10,10,12,12,13,13,14,14,15,15,16,16,17,17,18,18,19,19,20,20,21,21,22,22,25,25,26,26,27,27,28,28,29,29,32,32,36,36,37,37,38,38,39,39,41,41,42,42,43,43,44,44,45,45,46,46,47,47,48,48,49,49,51,51,52,52],"right_children":[2,4,6,8,10,12,14,16,18,20,22,-1,24,26,28,30,32,34,36,38,40,42,44,-1,-1,46,48,50,52,54,-1,-1,56,-1,-1,-1,58,60,62,64,-1,66,68,70,72,74,76,78,80,82,-1,84,86,-1,-1,-1,-1,-1,-1,-1,-1,-1,-1,-1,-1,-1,-1,-1,-1,-1,-1,-1,-1,-1,-1,-1,-1,-1,-1,-1,-1,-1,-1,-1,-1,-1,-1],"split_conditions":[3.625E2,1.035E1,3.875E2,1.695E1,1.245E1,1.545E1,1.785E1,7.5E1,1.7400002E1,1.225E1,1.335E1,4.620171E-2,3.825E2,1.675E1,1.905E1,9.8E0,1.65E2,2.1E2,1.8E1,1.825E1,2.225E1,2.25E2,1.365E1,-8.744431E-3,5.945778E-3,1.055E1,1.41E1,1.895E1,1.925E1,1.5E1,-3.2248594E-2,-3.4237083E-2,2.25E2,9.0925604E-2,2.9645577E-2,-6.788063E-2,2.85E2,1.7650002E1,1.195E1,1.8E1,1.0556889E-2,1.775E1,1.265E1,1.595E1,1.375E1,4.8E2,1.605E1,1.065E1,1.7650002E1,2.5E3,1.2511368E-1,4.95E2,1.955E1,5.70694E-3,1.9008765E-2,7.218762E-3,-4.620781E-3,3.3664085E-2,-8.889198E-3,-6.1399867E-3,2.2075813E-2,-1.8984698E-2,4.603754E-2,-2.3657514E-2,-6.6348955E-2,6.2627226E-2,1.8387469E-2,-4.0050317E-2,-7.617474E-4,5.5509567E-4,-1.1686146E-1,2.4889393E-2,1.2129119E-3,-2.2244837E-2,-1.1027622E-2,-5.5862777E-3,2.6515389E-2,6.0994867E-3,-2.6801528E-2,-5.155182E-3,2.9041862E-2,8.8755805E-3,2.825203E-2,-9.843331E-2,1.0385705E-2,1.8655669E-2,-1.2395428E-3],"split_indices":[0,1,0,2,1,1,2,0,2,1,1,0,0,2,2,1,0,0,2,2,2,0,1,0,0,1,1,2,2,0,0,0,0,0,0,0,0,2,1,2,0,2,1,2,1,0,2,1,2,0,0,0,2,0,0,0,0,0,0,0,0,0,0,0,0,0,0,0,0,0,0,0,0,0,0,0,0,0,0,0,0,0,0,0,0,0,0],"split_type":[0,0,0,0,0,0,0,0,0,0,0,0,0,0,0,0,0,0,0,0,0,0,0,0,0,0,0,0,0,0,0,0,0,0,0,0,0,0,0,0,0,0,0,0,0,0,0,0,0,0,0,0,0,0,0,0,0,0,0,0,0,0,0,0,0,0,0,0,0,0,0,0,0,0,0,0,0,0,0,0,0,0,0,0,0,0,0],"sum_hessian":[7.23E2,5.97E2,1.26E2,5.7E1,5.4E2,7E0,1.19E2,3.6E1,2.1E1,2.47E2,2.93E2,5E0,2E0,5.5E1,6.4E1,1.3E1,2.3E1,6E0,1.5E1,2.39E2,8E0,3.9E1,2.54E2,1E0,1E0,2.9E1,2.6E1,7E0,5.7E1,1.2E1,1E0,1E1,1.3E1,2E0,4E0,1E0,1.4E1,1.61E2,7.8E1,7E0,1E0,3.3E1,6E0,3.3E1,2.21E2,7E0,2.2E1,2.2E1,4E0,6E0,1E0,7E0,5E1,4E0,8E0,9E0,4E0,1.1E1,3E0,1.19E2,4.2E1,7.2E1,6E0,3E0,4E0,6E0,2.7E1,3E0,3E0,2.9E1,4E0,1E1,2.11E2,2E0,5E0,1E1,1.2E1,7E0,1.5E1,2E0,2E0,4E0,2E0,2E0,5E0,2E1,3E1],"tree_param":{"num_deleted":"0","num_feature":"3","num_nodes":"87","size_leaf_vector":"0"}},{"base_weights":[1.9487004E-3,1.547297E-3,9.790357E-2,1.2395005E-2,-1.5879545E-3,5.364572E-2,-2.9615194E-3,-3.1379636E-2,1.9096541E-3,1.06793E-1,-6.786939E-2,-6.0580708E-2,2.8102165E-2,-7.366218E-2,1.4900996E-2,2.084832E-2,-7.397234E-3,3.5723906E-2,3.9696026E-1,-3.1067329E-2,-1.5210772E-1,3.0117035E-3,-2.643776E-1,4.932067E-2,-3.589754E-2,-1.4397372E-1,-2.1677319E-2,1.0651261E-1,-1.3628669E-2,3.1454696E-3,1.307771E-1,-1.113957E-1,-5.0614914E-4,6.5414675E-2,-1.43929E-1,1.8194628E-1,5.513255E-1,5.3381443E-2,-4.485035E-2,-2.306722E-1,2.5529124E-2,-4.764552E-1,-1.05422154E-1,1.4757347E-1,1.5473726E-2,-7.811769E-2,2.4384605E-2,-5.191456E-2,-4.335327E-1,8.439382E-2,-3.912062E-2,2.3303032E-3,1.8406677E-1,7.409223E-2,-4.211182E-2,2.4589093E-1,-2.005107E-3,2.0337766E-1,-6.422097E-2,-2.5745264E-1,-1.7104516E-3,5.2474145E-2,-7.88374E-3],"categories":[],"categories_nodes":[],"categories_segments":[],"categories_sizes":[],"default_left":[1,1,0,1,1,1,1,1,1,1,1,1,1,1,1,1,1,1,1,1,0,1,1,1,1,1,1,1,1,1,1,1,1,0,0,0,0,0,0,0,0,0,0,0,0,0,0,0,0,0,0,0,0,0,0,0,0,0,0,0,0,0,0],"id":26,"left_children":[1,3,-1,5,7,9,11,13,15,17,19,21,23,25,27,29,31,33,35,37,-1,39,41,43,45,47,49,51,53,55,57,59,61,-1,-1,-1,-1,-1,-1,-1,-1,-1,-1,-1,-1,-1,-1,-1,-1,-1,-1,-1,-1,-1,-1,-1,-1,-1,-1,-1,-1,-1,-1],"loss_changes":[2.7734546E-2,2.4575114E-2,0E0,1.0278063E-1,5.851592E-2,2.914087E-1,2.1469629E-1,1.16552524E-1,8.881302E-2,6.250987E-1,3.8676433E-2,5.4511356E-1,1.0769281E-1,1.10188246E-1,7.724745E-2,3.2263342E-1,2.4217546E-1,1.4809994E-1,9.883255E-2,1.5197726E-2,0E0,1.7953348E-1,2.8687996E-1,1.9392435E-1,5.2807294E-2,3.2402855E-1,3.8455922E-2,5.612947E-2,6.0587212E-2,1.8053323E-1,3.3867142E-1,3.359858E-1,1.24709375E-1,0E0,0E0,0E0,0E0,0E0,0E0,0E0,0E0,0E0,0E0,0E0,0E0,0E0,0E0,0E0,0E0,0E0,0E0,0E0,0E0,0E0,0E0,0E0,0E0,0E0,0E0,0E0,0E0,0E0,0E0],"parents":[2147483647,0,0,1,1,3,3,4,4,5,5,6,6,7,7,8,8,9,9,10,10,11,11,12,12,13,13,14,14,15,15,16,16,17,17,18,18,19,19,21,21,22,22,23,23,24,24,25,25,26,26,27,27,28,28,29,29,30,30,31,31,32,32],"right_children":[2,4,-1,6,8,10,12,14,16,18,20,22,24,26,28,30,32,34,36,38,-1,40,42,44,46,48,50,52,54,56,58,60,62,-1,-1,-1,-1,-1,-1,-1,-1,-1,-1,-1,-1,-1,-1,-1,-1,-1,-1,-1,-1,-1,-1,-1,-1,-1,-1,-1,-1,-1,-1],"split_conditions":[1.645E1,6.5E1,2.9371073E-2,1.645E1,9.25E1,1.215E1,1.175E1,1.91E1,1.145E1,1.625E1,1.625E1,1.135E1,1.535E1,1.145E1,1.98E1,1.125E1,1.165E1,1.6150002E1,4.5E1,1.2799999E1,-4.5632318E-2,1.675E1,1.5E1,1.775E1,1.58E1,1.725E1,1.1700001E1,1.945E1,1.175E1,1.15E2,1.855E1,2.25E2,1.195E1,1.9624403E-2,-4.3178704E-2,5.4583885E-2,1.6539766E-1,1.6014434E-2,-1.3455105E-2,-6.920166E-2,7.6587372E-3,-1.4293657E-1,-3.162665E-2,4.4272043E-2,4.6421182E-3,-2.3435308E-2,7.315382E-3,-1.5574369E-2,-1.3005982E-1,2.5318148E-2,-1.1736186E-2,6.99091E-4,5.5220034E-2,2.2227671E-2,-1.2633547E-2,7.376728E-2,-6.015321E-4,6.10133E-2,-1.9266292E-2,-7.7235796E-2,-5.131355E-4,1.5742244E-2,-2.365122E-3],"split_indices":[1,0,0,2,0,1,1,2,1,2,2,1,1,1,2,1,1,2,0,1,0,2,0,2,1,2,1,2,1,0,2,0,1,0,0,0,0,0,0,0,0,0,0,0,0,0,0,0,0,0,0,0,0,0,0,0,0,0,0,0,0,0,0],"split_type":[0,0,0,0,0,0,0,0,0,0,0,0,0,0,0,0,0,0,0,0,0,0,0,0,0,0,0,0,0,0,0,0,0,0,0,0,0,0,0,0,0,0,0,0,0,0,0,0,0,0,0,0,0,0,0,0,0,0,0,0,0,0,0],"sum_hessian":[7.23E2,7.21E2,2E0,1.61E2,5.6E2,4.3E1,1.18E2,5.8E1,5.02E2,3E1,1.3E1,4.1E1,7.7E1,3E1,2.8E1,1.65E2,3.37E2,2.5E1,5E0,1E1,3E0,3.2E1,9E0,5.8E1,1.9E1,1.2E1,1.8E1,6E0,2.2E1,1.43E2,2.2E1,2E1,3.17E2,2.2E1,3E0,3E0,2E0,1E0,9E0,2E0,3E1,3E0,6E0,1.4E1,4.4E1,1.1E1,8E0,1E1,2E0,2E0,1.6E1,3E0,3E0,5E0,1.7E1,2E0,1.41E2,1.6E1,6E0,8E0,1.2E1,3.8E1,2.79E2],"tree_param":{"num_deleted":"0","num_feature":"3","num_nodes":"63","size_leaf_vector":"0"}},{"base_weights":[1.3134453E-3,-9.228836E-4,1.9583762E-2,1.9479066E-3,-2.2162203E-2,4.568672E-2,8.394769E-4,2.6876854E-3,-6.803926E-2,-1.9831944E-1,-1.23407E-2,2.6446076E-2,9.405666E-2,-1.0219203E-2,3.394556E-2,-1.6372284E-3,1.8910784E-2,3.0599594E-2,-9.388695E-2,-4.5789793E-2,4.630661E-3,3.842036E-3,4.393196E-2,1.2504101E-1,2.4065971E-2,2.2534778E-2,-1.752116E-2,5.102577E-2,1.9027233E-2,-4.2818584E-3,3.526586E-2,1.0660955E-2,4.9503706E-2,-2.6783943E-2,-1.0396671E-1,1.1696442E-2,-4.7125435E-1,3.8711295E-2,-9.698232E-3,3.7651442E-2,-1.7769098E-2,5.056117E-2,-2.1123886E-2,1.3868523E-1,2.8409958E-2,3.878975E-2,-1.0052681E-2,-1.6518593E-2,5.5954456E-2,-6.6781044E-2,-4.9979403E-3,-2.1677017E-3,6.4866066E-2,2.6610693E-2,-2.4820964E-3,-2.6241557E-3,-7.9323664E-2,8.576114E-2,-1.4277577E-2,1.774072E-2,-8.087622E-2,1.3534813E-1,2.6707241E-2,-1.8934857E-2,3.427925E-1,-7.2182335E-2,6.132434E-2,-1.0335127E-1,8.74101E-3,-2.3792267E-2,5.8960438E-2,-2.900734E-2,7.209778E-4,3.8393367E-2,7.832273E-2,9.915352E-3,4.826927E-2,-2.5273642E-2,4.8732758E-3,-7.528381E-2,-1.2133598E-2,2.2515139E-2,-2.8223583E-2,1.5156555E-2,4.194069E-2,-8.059502E-3,4.336357E-3],"categories":[],"categories_nodes":[],"categories_segments":[],"categories_sizes":[],"default_left":[1,1,1,1,1,1,1,1,1,0,1,1,1,1,1,1,1,0,1,1,1,1,1,1,1,1,1,1,1,1,1,1,1,0,0,1,0,1,1,1,1,1,0,0,0,1,0,1,0,1,1,0,0,1,1,0,0,0,0,0,0,0,0,0,0,0,0,0,0,0,0,0,0,0,0,0,0,0,0,0,0,0,0,0,0,0,0],"id":27,"left_children":[1,3,5,7,9,11,13,15,17,-1,19,21,23,25,27,29,31,-1,33,35,37,39,41,43,45,47,49,51,53,55,57,59,61,-1,-1,63,-1,65,67,69,71,73,-1,-1,-1,75,-1,77,-1,79,81,-1,-1,83,85,-1,-1,-1,-1,-1,-1,-1,-1,-1,-1,-1,-1,-1,-1,-1,-1,-1,-1,-1,-1,-1,-1,-1,-1,-1,-1,-1,-1,-1,-1,-1,-1],"loss_changes":[2.959958E-2,3.943213E-2,3.8614877E-2,2.9694635E-2,1.307725E-1,2.8224647E-2,1.7554048E-2,3.967334E-2,1.8170418E-2,0E0,4.222011E-2,9.712506E-3,1.6508304E-2,9.004889E-3,2.0868191E-3,4.3775976E-2,2.9506225E-2,0E0,5.9727207E-4,6.169709E-1,2.4792317E-2,9.436948E-3,7.1058124E-3,3.97069E-3,2.3993626E-3,1.0060347E-2,1.8173002E-2,3.8216747E-3,1.3709713E-3,5.178979E-2,7.627575E-2,6.300067E-2,4.5308962E-2,0E0,0E0,2.3975448E-1,0E0,4.2041175E-2,6.3071474E-2,7.949321E-3,1.683281E-3,1.3842918E-3,0E0,0E0,0E0,3.425395E-4,0E0,8.723127E-4,0E0,1.8744655E-3,1.6610682E-2,0E0,0E0,4.1787513E-4,1.4903671E-4,0E0,0E0,0E0,0E0,0E0,0E0,0E0,0E0,0E0,0E0,0E0,0E0,0E0,0E0,0E0,0E0,0E0,0E0,0E0,0E0,0E0,0E0,0E0,0E0,0E0,0E0,0E0,0E0,0E0,0E0,0E0,0E0],"parents":[2147483647,0,0,1,1,2,2,3,3,4,4,5,5,6,6,7,7,8,8,10,10,11,11,12,12,13,13,14,14,15,15,16,16,18,18,19,19,20,20,21,21,22,22,23,23,24,24,25,25,26,26,27,27,28,28,29,29,30,30,31,31,32,32,35,35,37,37,38,38,39,39,40,40,41,41,45,45,47,47,49,49,50,50,53,53,54,54],"right_children":[2,4,6,8,10,12,14,16,18,-1,20,22,24,26,28,30,32,-1,34,36,38,40,42,44,46,48,50,52,54,56,58,60,62,-1,-1,64,-1,66,68,70,72,74,-1,-1,-1,76,-1,78,-1,80,82,-1,-1,84,86,-1,-1,-1,-1,-1,-1,-1,-1,-1,-1,-1,-1,-1,-1,-1,-1,-1,-1,-1,-1,-1,-1,-1,-1,-1,-1,-1,-1,-1,-1,-1,-1],"split_conditions":[1.555E1,1.515E1,1.8E1,7.05E2,1.725E1,1.7650002E1,2.775E2,3.025E2,1.595E1,-5.9495833E-2,1.805E1,1.325E2,1.575E1,7.25E1,1.995E1,1.455E1,1.33E1,9.179879E-3,1.055E1,2.9E2,4.15E2,8.75E1,2.45E2,1.85E2,1.375E2,1.84E1,1.225E2,3.275E2,3.25E2,1.435E1,1.83E1,1.215E1,1.375E1,-8.035183E-3,-3.1190015E-2,2.65E2,-1.4137632E-1,1.525E1,6.25E2,2.5E1,1.075E2,1.645E1,-6.3371663E-3,4.160557E-2,8.522987E-3,4.25E1,-3.0158043E-3,5.5E1,1.6786337E-2,2E1,1.9E2,-6.5031054E-4,1.9459821E-2,3.1E2,3.825E2,-7.8724674E-4,-2.37971E-2,2.5728343E-2,-4.2832736E-3,5.3222165E-3,-2.4262866E-2,4.060444E-2,8.012173E-3,-5.680457E-3,1.0283776E-1,-2.16547E-2,1.8397303E-2,-3.1005383E-2,2.622303E-3,-7.1376804E-3,1.7688133E-2,-8.702203E-3,2.1629334E-4,1.1518011E-2,2.349682E-2,2.9746057E-3,1.4480782E-2,-7.5820927E-3,1.4619827E-3,-2.2585144E-2,-3.6400796E-3,6.754542E-3,-8.467075E-3,4.546967E-3,1.2582207E-2,-2.4178505E-3,1.3009072E-3],"split_indices":[1,1,2,0,2,2,0,0,2,0,2,0,1,0,2,1,1,0,1,0,0,0,0,0,0,2,0,0,0,1,2,1,1,0,0,0,0,1,0,0,0,1,0,0,0,0,0,0,0,2,0,0,0,0,0,0,0,0,0,0,0,0,0,0,0,0,0,0,0,0,0,0,0,0,0,0,0,0,0,0,0,0,0,0,0,0,0],"split_type":[0,0,0,0,0,0,0,0,0,0,0,0,0,0,0,0,0,0,0,0,0,0,0,0,0,0,0,0,0,0,0,0,0,0,0,0,0,0,0,0,0,0,0,0,0,0,0,0,0,0,0,0,0,0,0,0,0,0,0,0,0,0,0,0,0,0,0,0,0,0,0,0,0,0,0,0,0,0,0,0,0,0,0,0,0,0,0],"sum_hessian":[7.23E2,6.45E2,7.8E1,5.69E2,7.6E1,3.2E1,4.6E1,5.64E2,5E0,3E0,7.3E1,2.4E1,8E0,3.5E1,1.1E1,4.46E2,1.18E2,1E0,4E0,2.4E1,4.9E1,1.1E1,1.3E1,5E0,3E0,6E0,2.9E1,4E0,7E0,4.17E2,2.9E1,9.4E1,2.4E1,1E0,3E0,2.2E1,2E0,1.4E1,3.5E1,4E0,7E0,1.2E1,1E0,4E0,1E0,2E0,1E0,3E0,3E0,5E0,2.4E1,1E0,3E0,5E0,2E0,4.09E2,8E0,1.4E1,1.5E1,8.8E1,6E0,4E0,2E1,2.1E1,1E0,2E0,1.2E1,5E0,3E1,1E0,3E0,4E0,3E0,1E1,2E0,1E0,1E0,2E0,1E0,4E0,1E0,1.1E1,1.3E1,4E0,1E0,1E0,1E0],"tree_param":{"num_deleted":"0","num_feature":"3","num_nodes":"87","size_leaf_vector":"0"}},{"base_weights":[8.8385324E-4,-8.605626E-4,1.5137129E-2,-6.619201E-3,7.234701E-3,3.4868762E-2,9.6093846E-4,-4.2665005E-3,-8.472598E-2,4.933385E-2,-3.3429408E-4,1.974167E-2,7.3014155E-2,-1.2008463E-2,1.9070053E-2,-6.044184E-3,1.5901375E-1,-6.078084E-2,-1.2831943E-1,2.4700748E-2,1.8891017E-1,-1.0337639E-1,6.856244E-3,1.3285512E-2,6.265831E-2,1.5478706E-1,4.3444157E-2,4.4631958E-4,-5.7750385E-2,4.2148907E-2,8.567174E-3,2.6312161E-2,-1.5073776E-2,3.1399918E-1,-1.5297127E-1,-8.681822E-2,-3.3292454E-2,6.1336342E-2,-3.0678177E-2,2.1519661E-1,2.8738976E-2,-3.9942628E-1,4.0589593E-2,5.332627E-2,-3.744082E-3,3.1125259E-2,-4.0612902E-4,8.15258E-2,1.2461662E-2,5.209187E-2,-8.544922E-3,-3.0364355E-2,1.0691749E-2,1.7270407E-2,5.0270557E-2,-1.1125565E-2,1.2452639E-2,-1.40389865E-2,5.8008365E-2,-7.2608553E-3,-3.784666E-1,-4.557228E-2,1.4053345E-2,9.0682507E-4,1.9069862E-1,-9.0423375E-2,5.051967E-2,4.438591E-2,-7.1009636E-1,9.9724665E-2,-1.5034549E-1,